{"learner":{"attributes":{"scikit_learn":"{\"_estimator_type\": \"classifier\"}"},"feature_names":["id","V1","V2","V3","V4","V5","V6","V7","V8","V9","V10","V11","V12","V13","V14","V15","V16","V17","V18","V19","V20","V21","V22","V23","V24","V25","V26","V27","V28","Amount"],"feature_types":["int","float","float","float","float","float","float","float","float","float","float","float","float","float","float","float","float","float","float","float","float","float","float","float","float","float","float","float","float","float"],"gradient_booster":{"model":{"gbtree_model_param":{"num_parallel_tree":"1","num_trees":"100"},"iteration_indptr":[0,1,2,3,4,5,6,7,8,9,10,11,12,13,14,15,16,17,18,19,20,21,22,23,24,25,26,27,28,29,30,31,32,33,34,35,36,37,38,39,40,41,42,43,44,45,46,47,48,49,50,51,52,53,54,55,56,57,58,59,60,61,62,63,64,65,66,67,68,69,70,71,72,73,74,75,76,77,78,79,80,81,82,83,84,85,86,87,88,89,90,91,92,93,94,95,96,97,98,99,100],"tree_info":[0,0,0,0,0,0,0,0,0,0,0,0,0,0,0,0,0,0,0,0,0,0,0,0,0,0,0,0,0,0,0,0,0,0,0,0,0,0,0,0,0,0,0,0,0,0,0,0,0,0,0,0,0,0,0,0,0,0,0,0,0,0,0,0,0,0,0,0,0,0,0,0,0,0,0,0,0,0,0,0,0,0,0,0,0,0,0,0,0,0,0,0,0,0,0,0,0,0,0,0],"trees":[{"base_weights":[-0E0,-1.9930531E0,1.9947923E0,1.0222223E0,-1.9978027E0,-5.641791E-1,1.9956781E0,1.2657005E0,-1.6E0,1.4E0,-1.9982532E0,1.4369556E0,5.999915E-1,1.4423592E0,-3.1111112E-1,-0E0,-5.3333336E-1,5.3333336E-1,-3E-1,-1.3387097E0,-1.9988016E0,1.9068736E0,-8.031496E-1,6.88E-1,1.7936507E0,-1E0,1.0588236E0,7.169811E-1,-1.8592964E0,-0E0,-5.9964895E-1,-9.52381E-2,1.9747851E0,-1.3771626E0,9.583333E-1,-3.1428576E-1,4.482759E-1,-6.666667E-2,5.5141705E-1,-3.7777779E-1,6.666667E-2,-0E0,4.1538465E-1,4.2000002E-1,-3.176471E-1,-5.804348E-1,-2.2105263E-1,-4.9565217E-1,2.1818183E-1,-3E-1,5.951752E-1,-4.5163637E-1,2.6666668E-1,-2.1428573E-1,4.666667E-1],"categories":[],"categories_nodes":[],"categories_segments":[],"categories_sizes":[],"default_left":[0,0,0,0,0,0,0,0,0,0,0,0,0,0,0,0,0,0,0,0,0,0,0,0,0,0,0,0,0,0,0,0,0,0,0,0,0,0,0,0,0,0,0,0,0,0,0,0,0,0,0,0,0,0,0],"id":0,"left_children":[1,3,5,7,9,-1,11,13,15,17,19,21,-1,23,25,-1,-1,-1,-1,27,29,31,33,35,37,39,41,43,45,-1,-1,47,49,51,53,-1,-1,-1,-1,-1,-1,-1,-1,-1,-1,-1,-1,-1,-1,-1,-1,-1,-1,-1,-1],"loss_changes":[5.651874E5,1.02046875E3,2.476875E2,7.385121E1,1.1146875E2,0E0,1.675E2,2.9279434E1,2.8444443E0,1.0844444E1,2.3E1,5.7549756E2,0E0,2.3477234E1,1.1675817E1,0E0,0E0,0E0,0E0,6.768335E1,4E0,6.150891E1,9.76284E1,4.529503E1,6.048004E0,2.8148146E0,1.4660635E0,1.7553385E1,2.7896729E0,0E0,0E0,2.1370977E1,1.3835205E1,2.2342422E1,2.5085321E1,0E0,0E0,0E0,0E0,0E0,0E0,0E0,0E0,0E0,0E0,0E0,0E0,0E0,0E0,0E0,0E0,0E0,0E0,0E0,0E0],"parents":[2147483647,0,0,1,1,2,2,3,3,4,4,6,6,7,7,8,8,9,9,10,10,11,11,13,13,14,14,19,19,20,20,21,21,22,22,23,23,24,24,25,25,26,26,27,27,28,28,31,31,32,32,33,33,34,34],"right_children":[2,4,6,8,10,-1,12,14,16,18,20,22,-1,24,26,-1,-1,-1,-1,28,30,32,34,36,38,40,42,44,46,-1,-1,48,50,52,54,-1,-1,-1,-1,-1,-1,-1,-1,-1,-1,-1,-1,-1,-1,-1,-1,-1,-1,-1,-1],"split_conditions":[2.84439E5,-1.8991226E-1,-1.3751954E0,-2.1848693E-1,-1.0773156E0,-5.641791E-1,2.86679E5,-2.9017776E-1,-2.6067892E-1,-5.712348E-1,-5.6891483E-1,4.1927046E-1,5.999915E-1,-5.219896E-1,9.725564E-2,-0E0,-5.3333336E-1,5.3333336E-1,-3E-1,-4.5778327E-2,-7.4752706E-1,-9.8473793E-1,-2.8779225E-2,2.0001E4,-2.476251E0,3.145233E-1,6.8901E4,2.999199E0,-1.6516127E-1,-0E0,-5.9964895E-1,1.17508724E-1,-8.6714715E-1,-1.2096035E-3,3.826296E-1,-3.1428576E-1,4.482759E-1,-6.666667E-2,5.5141705E-1,-3.7777779E-1,6.666667E-2,-0E0,4.1538465E-1,4.2000002E-1,-3.176471E-1,-5.804348E-1,-2.2105263E-1,-4.9565217E-1,2.1818183E-1,-3E-1,5.951752E-1,-4.5163637E-1,2.6666668E-1,-2.1428573E-1,4.666667E-1],"split_indices":[0,17,4,12,14,0,0,14,7,3,14,12,0,26,20,0,0,0,0,10,12,11,4,0,3,24,0,16,21,0,0,6,4,11,17,0,0,0,0,0,0,0,0,0,0,0,0,0,0,0,0,0,0,0,0],"split_type":[0,0,0,0,0,0,0,0,0,0,0,0,0,0,0,0,0,0,0,0,0,0,0,0,0,0,0,0,0,0,0,0,0,0,0,0,0,0,0,0,0,0,0,0,0,0,0,0,0,0,0,0,0,0,0],"sum_hessian":[1.421575E5,7.110975E4,7.104775E4,1.115E2,7.099825E4,1.575E1,7.1032E4,1.025E2,9E0,9E0,7.098925E4,5.4425E2,7.048775E4,9.225E1,1.025E1,1E0,8E0,8E0,1E0,6.1E1,7.092825E4,4.5E2,9.425E1,3.025E1,6.2E1,7E0,3.25E0,1.225E1,4.875E1,1E0,7.092725E4,1.475E1,4.3525E2,7.125E1,2.3E1,9.5E0,2.075E1,1.25E0,6.075E1,5.75E0,1.25E0,1E0,2.25E0,9E0,3.25E0,4.5E1,3.75E0,4.75E0,1E1,1E0,4.3425E2,6.775E1,3.5E0,6E0,1.7E1],"tree_param":{"num_deleted":"0","num_feature":"30","num_nodes":"55","size_leaf_vector":"1"}},{"base_weights":[5.150631E-6,-1.5431632E0,1.5446522E0,7.6896864E-1,-1.546912E0,-4.4040135E-1,1.5453495E0,9.887591E-1,-1.0209187E0,1.073618E0,-1.5472686E0,1.101798E0,4.646377E-1,3.692868E-1,1.2759767E0,-1.3383075E0,3.0946013E-1,4.1811523E-1,-1.8081021E-1,-1.0399263E0,-1.5477241E0,-9.980818E-1,1.4132171E0,1.0894085E0,-8.305243E-1,-2.5689232E-1,1.3820899E0,-4.4855706E-2,-4.598777E-1,5.3071624E-1,-1.4618025E0,-0E0,-4.643244E-1,-1.2114193E0,8.69796E-1,1.5141286E0,-2.0464797E-2,4.214602E-1,-1.7694181E-1,1.8086497E-1,-3.971863E-1,-2.641327E-1,1.5557353E-1,-1.2390218E-1,4.30307E-1,-2.2363634E-1,3.7508464E-1,-2.1181826E-1,-4.540904E-1,1.5618077E-1,-4.1396734E-1,-2.4008463E-1,3.9956844E-1,4.61679E-1,-6.0088582E-2,1.6557202E-1,-3.2245758E-1],"categories":[],"categories_nodes":[],"categories_segments":[],"categories_sizes":[],"default_left":[0,0,0,0,0,0,0,0,0,0,0,0,0,0,0,0,0,0,0,0,0,0,0,0,0,0,0,0,0,0,0,0,0,0,0,0,0,0,0,0,0,0,0,0,0,0,0,0,0,0,0,0,0,0,0,0,0],"id":1,"left_children":[1,3,5,7,9,-1,11,13,15,17,19,21,-1,23,25,27,-1,-1,-1,29,31,33,35,37,39,41,43,-1,-1,45,47,-1,-1,49,51,53,55,-1,-1,-1,-1,-1,-1,-1,-1,-1,-1,-1,-1,-1,-1,-1,-1,-1,-1,-1,-1],"loss_changes":[3.1014144E5,5.6534375E2,1.3889062E2,4.2720367E1,6.2390625E1,0E0,9.75625E1,1.6420647E1,9.254753E0,5.9026356E0,1.3421875E1,3.3110938E2,0E0,2.810526E1,1.0839523E1,2.2935715E0,0E0,0E0,0E0,4.1416367E1,2.390625E0,2.723426E1,6.361145E1,1.1479322E1,9.55118E0,2.8822541E0,6.2631836E0,0E0,0E0,1.353075E1,8.355789E-1,0E0,0E0,1.8046135E1,6.712491E0,1.7766418E1,1.8629173E1,0E0,0E0,0E0,0E0,0E0,0E0,0E0,0E0,0E0,0E0,0E0,0E0,0E0,0E0,0E0,0E0,0E0,0E0,0E0,0E0],"parents":[2147483647,0,0,1,1,2,2,3,3,4,4,6,6,7,7,8,8,9,9,10,10,11,11,13,13,14,14,15,15,19,19,20,20,21,21,22,22,23,23,24,24,25,25,26,26,29,29,30,30,33,33,34,34,35,35,36,36],"right_children":[2,4,6,8,10,-1,12,14,16,18,20,22,-1,24,26,28,-1,-1,-1,30,32,34,36,38,40,42,44,-1,-1,46,48,-1,-1,50,52,54,56,-1,-1,-1,-1,-1,-1,-1,-1,-1,-1,-1,-1,-1,-1,-1,-1,-1,-1,-1,-1],"split_conditions":[2.84439E5,-1.8991226E-1,-1.3751954E0,1.1344819E-1,-1.0773156E0,-4.4040135E-1,2.86679E5,-5.494774E-1,4.547318E-1,-6.36933E-1,-5.598397E-1,-3.8138872E-1,4.646377E-1,9.2898285E-1,-1.6196387E-1,8.8903E4,3.0946013E-1,4.1811523E-1,-1.8081021E-1,9.910145E-3,-7.4752706E-1,-1.2096035E-3,4.7742575E-1,-2.3127037E-1,5.247858E-1,5.057927E-1,-2.476251E0,-4.4855706E-2,-4.598777E-1,-1.1256496E0,-3.251752E-1,-0E0,-4.643244E-1,-7.381995E-1,-7.3198855E-1,8.043827E-1,-1.3654542E-1,4.214602E-1,-1.7694181E-1,1.8086497E-1,-3.971863E-1,-2.641327E-1,1.5557353E-1,-1.2390218E-1,4.30307E-1,-2.2363634E-1,3.7508464E-1,-2.1181826E-1,-4.540904E-1,1.5618077E-1,-4.1396734E-1,-2.4008463E-1,3.9956844E-1,4.61679E-1,-6.0088582E-2,1.6557202E-1,-3.2245758E-1],"split_indices":[0,17,4,10,14,0,0,26,21,3,14,4,0,27,4,0,0,0,0,10,12,11,14,14,28,13,3,0,0,24,20,0,0,20,4,12,8,0,0,0,0,0,0,0,0,0,0,0,0,0,0,0,0,0,0,0,0],"split_type":[0,0,0,0,0,0,0,0,0,0,0,0,0,0,0,0,0,0,0,0,0,0,0,0,0,0,0,0,0,0,0,0,0,0,0,0,0,0,0,0,0,0,0,0,0,0,0,0,0,0,0,0,0,0,0,0,0],"sum_hessian":[1.30109984E5,6.5086145E4,6.5023836E4,1.0502668E2,6.498112E4,1.456031E1,6.5009273E4,9.3938965E1,1.1087715E1,8.434866E0,6.4972684E4,5.031711E2,6.45061E4,3.048167E1,6.34573E1,9.904104E0,1.1836116E0,7.2240005E0,1.2108655E0,6.0333454E1,6.491235E4,6.4699715E1,4.384714E2,1.9106215E1,1.1375455E1,4.016444E0,5.9440853E1,1.6420733E0,8.262031E0,1.2719784E1,4.761367E1,1E0,6.491135E4,5.838301E1,6.3167033E0,4.0958606E2,2.888534E1,1.6222095E1,2.8841195E0,2.8562543E0,8.519201E0,2.1512644E0,1.86518E0,1.4864616E0,5.795439E1,4.5731654E0,8.146619E0,3.9944503E0,4.3619217E1,4.9901524E0,5.3392857E1,1.2103863E0,5.106317E0,4.0384625E2,5.739797E0,1.9031025E1,9.854315E0],"tree_param":{"num_deleted":"0","num_feature":"30","num_nodes":"57","size_leaf_vector":"1"}},{"base_weights":[2.358107E-5,-1.3393972E0,1.3409469E0,7.404762E-1,-1.342605E0,8.6766875E-1,4.034492E-1,9.379868E-1,-4.9704653E-1,9.804756E-1,-1.3430185E0,-1.0608917E0,1.1764772E0,1.3185138E0,5.2082074E-1,3.454806E-1,-8.984528E-1,3.7255645E-1,-1.7474842E-1,-9.232228E-1,-4.0309522E-1,2.566459E-1,-1.1487919E0,-9.795743E-2,1.3164614E0,1.39529845E-2,4.060525E-1,-4.410047E-1,9.444406E-1,-3.6193538E-1,1.4195214E-1,5.2174485E-1,-1.2734609E0,-1.2090994E0,9.094372E-2,3.5805345E-1,-1.1270833E0,1.3344269E0,1.2774979E-1,-3.4659636E-1,2.9562598E-1,-2.4421322E-1,3.222455E-1,4.15257E-1,-9.5307E-2,7.8464895E-2,-3.901969E-1,-3.7972525E-1,-2.1095326E-2,3.5703808E-1,-2.7392158E-1,2.4006645E-1,-2.1828306E-1,-4.095039E-1,6.422214E-2,4.0160492E-1,1.2443252E-2,3.2498646E-1,-2.604134E-1],"categories":[],"categories_nodes":[],"categories_segments":[],"categories_sizes":[],"default_left":[0,0,0,0,0,0,0,0,0,0,0,0,0,0,0,0,0,0,0,0,0,0,0,0,0,0,0,0,0,0,0,0,0,0,0,0,0,0,0,0,0,0,0,0,0,0,0,0,0,0,0,0,0,0,0,0,0,0,0],"id":2,"left_children":[1,3,5,7,9,11,-1,13,15,17,19,21,23,25,27,-1,29,-1,-1,31,-1,-1,33,35,37,-1,-1,39,41,-1,-1,43,45,47,49,51,53,55,57,-1,-1,-1,-1,-1,-1,-1,-1,-1,-1,-1,-1,-1,-1,-1,-1,-1,-1,-1,-1],"loss_changes":[1.9481673E5,3.6303906E2,9.8453125E1,2.1048687E1,5.3367188E1,2.656757E2,0E0,1.0895889E1,9.137203E0,4.899624E0,1.31484375E1,1.1394363E1,6.8490906E1,1.606514E0,1.527186E1,0E0,4.9678183E0,0E0,0E0,4.350656E1,0E0,0E0,4.5603256E0,1.8637981E1,7.204468E0,0E0,0E0,1.3191975E1,6.7204285E0,0E0,0E0,1.2910163E1,3.196785E0,3.5774994E0,5.160398E0,1.3871636E1,4.1761694E0,1.81604E0,6.8848515E0,0E0,0E0,0E0,0E0,0E0,0E0,0E0,0E0,0E0,0E0,0E0,0E0,0E0,0E0,0E0,0E0,0E0,0E0,0E0,0E0],"parents":[2147483647,0,0,1,1,2,2,3,3,4,4,5,5,7,7,8,8,9,9,10,10,11,11,12,12,13,13,14,14,16,16,19,19,22,22,23,23,24,24,27,27,28,28,31,31,32,32,33,33,34,34,35,35,36,36,37,37,38,38],"right_children":[2,4,6,8,10,12,-1,14,16,18,20,22,24,26,28,-1,30,-1,-1,32,-1,-1,34,36,38,-1,-1,40,42,-1,-1,44,46,48,50,52,54,56,58,-1,-1,-1,-1,-1,-1,-1,-1,-1,-1,-1,-1,-1,-1,-1,-1,-1,-1,-1,-1],"split_conditions":[2.84439E5,-2.9277694E-1,2.86679E5,-2.9017776E-1,-1.0773156E0,-4.5082176E-1,4.034492E-1,3.6709714E-1,-2.381707E-1,3.7326428E-1,-4.8148543E-1,-1.5199852E-1,-4.947047E-1,-7.5273174E-1,-6.425971E-1,3.454806E-1,6.316137E-1,3.7255645E-1,-1.7474842E-1,9.910145E-3,-4.0309522E-1,2.566459E-1,1.7887817E-1,1.2672291E0,8.551935E-1,1.39529845E-2,4.060525E-1,-2.3161888E-1,-5.204843E-2,-3.6193538E-1,1.4195214E-1,7.9563904E-1,-1.3476889E0,6.249387E-1,-9.212955E-2,-1.2805715E-1,-2.5421718E-1,1.3623575E0,4.8180506E-2,-3.4659636E-1,2.9562598E-1,-2.4421322E-1,3.222455E-1,4.15257E-1,-9.5307E-2,7.8464895E-2,-3.901969E-1,-3.7972525E-1,-2.1095326E-2,3.5703808E-1,-2.7392158E-1,2.4006645E-1,-2.1828306E-1,-4.095039E-1,6.422214E-2,4.0160492E-1,1.2443252E-2,3.2498646E-1,-2.604134E-1],"split_indices":[0,17,0,14,14,4,0,20,8,7,14,12,11,21,26,0,23,0,0,10,0,0,21,1,14,0,0,22,4,0,0,5,15,19,6,8,2,12,12,0,0,0,0,0,0,0,0,0,0,0,0,0,0,0,0,0,0,0,0],"split_type":[0,0,0,0,0,0,0,0,0,0,0,0,0,0,0,0,0,0,0,0,0,0,0,0,0,0,0,0,0,0,0,0,0,0,0,0,0,0,0,0,0,0,0,0,0,0,0,0,0,0,0,0,0,0,0,0,0,0,0],"sum_hessian":[1.08466914E5,5.426386E4,5.420305E4,8.32081E1,5.4180652E4,4.430014E2,5.376005E4,7.19645E1,1.1243601E1,9.222681E0,5.417143E4,6.0808254E1,3.8219318E2,3.650502E1,3.545948E1,1.8355885E0,9.408012E0,8.077341E0,1.1453407E0,8.365442E1,5.4087773E4,2.2838485E0,5.8524406E1,3.7855133E1,3.4433804E2,1.0397711E0,3.546525E1,1.08296995E1,2.462978E1,7.7811747E0,1.6268376E0,1.6225138E1,6.742928E1,5.583309E1,2.6913168E0,2.6683582E1,1.117155E1,3.3909064E2,5.247383E0,7.3427157E0,3.4869838E0,1.3295349E0,2.3300245E1,7.682792E0,8.542345E0,1.0238165E0,6.6405464E1,5.308096E1,2.7521305E0,1.1962792E0,1.4950378E0,1.9147943E1,7.5356374E0,9.473164E0,1.6983863E0,3.379428E2,1.1478407E0,2.6329803E0,2.6144028E0],"tree_param":{"num_deleted":"0","num_feature":"30","num_nodes":"59","size_leaf_vector":"1"}},{"base_weights":[6.2169645E-5,-1.2246388E0,1.2264487E0,5.333374E-1,-1.2279145E0,7.675672E-1,3.6910176E-1,6.798608E-1,-9.812618E-1,7.6266277E-1,-1.2282227E0,1.1125028E0,-6.4343697E-1,-3.661921E-1,7.8342885E-1,3.129282E-2,-3.4928325E-1,-1.6799286E-1,3.2335287E-1,-8.232052E-1,-3.6864504E-1,-7.8421056E-1,1.1771522E0,-9.9915266E-1,4.355279E-1,-3.403605E-1,1.3787399E-1,1.1044815E0,4.3250734E-1,3.781504E-1,-1.1337847E0,2.0827283E-1,-1.0794674E0,1.204026E0,-8.4806126E-1,6.333898E-3,-1.1531613E0,-3.785958E-1,7.2315234E-1,2.757462E-1,-2.1085358E-1,3.4951848E-1,-3.2031305E-2,3.2641318E-1,1.52377E-2,3.9671797E-1,-9.809966E-2,6.535533E-2,-3.4963623E-1,-2.0622645E-1,3.1966403E-1,-3.468314E-1,-9.519364E-2,3.6472258E-1,-3.057695E-1,-3.2188323E-1,-3.272008E-2,-2.611277E-1,3.1405833E-1,9.66935E-3,-3.6472058E-1,2.8261682E-1,-2.9213575E-1],"categories":[],"categories_nodes":[],"categories_segments":[],"categories_sizes":[],"default_left":[0,0,0,0,0,0,0,0,0,0,0,0,0,0,0,0,0,0,0,0,0,0,0,0,0,0,0,0,0,0,0,0,0,0,0,0,0,0,0,0,0,0,0,0,0,0,0,0,0,0,0,0,0,0,0,0,0,0,0,0,0,0,0],"id":3,"left_children":[1,3,5,7,9,11,-1,13,15,17,19,21,23,25,27,-1,-1,-1,-1,29,-1,31,33,35,37,-1,39,41,43,45,47,49,51,53,55,57,59,-1,61,-1,-1,-1,-1,-1,-1,-1,-1,-1,-1,-1,-1,-1,-1,-1,-1,-1,-1,-1,-1,-1,-1,-1,-1],"loss_changes":[1.3007836E5,2.501836E2,7.631641E1,1.8707052E1,2.7476562E1,1.7907155E2,0E0,8.380707E0,1.6273227E0,3.652997E0,9.390625E0,3.7076202E1,2.8306967E1,3.0270324E0,7.216961E0,0E0,0E0,0E0,0E0,2.5186646E1,0E0,3.2484922E0,1.6560455E1,8.511536E0,1.0043704E1,0E0,4.1714854E0,2.6942978E0,8.521147E0,1.0007289E1,2.5214615E0,3.1927576E0,1.071043E-1,8.589508E0,6.018746E-1,8.473155E0,3.5720558E0,0E0,7.094042E0,0E0,0E0,0E0,0E0,0E0,0E0,0E0,0E0,0E0,0E0,0E0,0E0,0E0,0E0,0E0,0E0,0E0,0E0,0E0,0E0,0E0,0E0,0E0,0E0],"parents":[2147483647,0,0,1,1,2,2,3,3,4,4,5,5,7,7,8,8,9,9,10,10,11,11,12,12,13,13,14,14,19,19,21,21,22,22,23,23,24,24,26,26,27,27,28,28,29,29,30,30,31,31,32,32,33,33,34,34,35,35,36,36,38,38],"right_children":[2,4,6,8,10,12,-1,14,16,18,20,22,24,26,28,-1,-1,-1,-1,30,-1,32,34,36,38,-1,40,42,44,46,48,50,52,54,56,58,60,-1,62,-1,-1,-1,-1,-1,-1,-1,-1,-1,-1,-1,-1,-1,-1,-1,-1,-1,-1,-1,-1,-1,-1,-1,-1],"split_conditions":[2.84439E5,-1.8991226E-1,2.86679E5,-2.1848693E-1,-1.0773156E0,3.981278E-1,3.6910176E-1,-1.6196387E-1,-5.4261774E-1,-1.6295773E-1,-4.8148543E-1,-7.04135E-1,-2.8779225E-2,-3.3980379E-1,5.570359E-1,3.129282E-2,-3.4928325E-1,-1.6799286E-1,3.2335287E-1,9.910145E-3,-3.6864504E-1,1.8600272E-1,1.6297648E0,-1.3061137E0,-1.9142251E0,-3.403605E-1,-1.7643372E-2,-1.6965902E-1,-2.4876934E-1,7.9563904E-1,-1.3476889E0,-8.940568E-1,9.133361E-2,1.2581851E0,6.429195E-1,5.1778936E-1,-3.6562634E-1,-3.785958E-1,1.1246177E0,2.757462E-1,-2.1085358E-1,3.4951848E-1,-3.2031305E-2,3.2641318E-1,1.52377E-2,3.9671797E-1,-9.809966E-2,6.535533E-2,-3.4963623E-1,-2.0622645E-1,3.1966403E-1,-3.468314E-1,-9.519364E-2,3.6472258E-1,-3.057695E-1,-3.2188323E-1,-3.272008E-2,-2.611277E-1,3.1405833E-1,9.66935E-3,-3.6472058E-1,2.8261682E-1,-2.9213575E-1],"split_indices":[0,17,0,12,14,14,0,4,3,27,14,4,4,2,28,0,0,0,0,10,0,5,1,13,11,0,8,16,24,5,15,4,20,3,18,22,21,0,7,0,0,0,0,0,0,0,0,0,0,0,0,0,0,0,0,0,0,0,0,0,0,0,0],"split_type":[0,0,0,0,0,0,0,0,0,0,0,0,0,0,0,0,0,0,0,0,0,0,0,0,0,0,0,0,0,0,0,0,0,0,0,0,0,0,0,0,0,0,0,0,0,0,0,0,0,0,0,0,0,0,0,0,0,0,0,0,0,0,0],"sum_hessian":[8.660393E4,4.333174E4,4.3272188E4,8.028872E1,4.325145E4,3.654551E2,4.290673E4,7.370917E1,6.579546E0,6.315075E0,4.3245137E4,2.9383536E2,7.161975E1,6.411934E0,6.729723E1,1.011256E0,5.56829E0,1.0658011E0,5.249274E0,6.5354355E1,4.317978E4,9.318365E0,2.84517E2,5.391793E1,1.770182E1,2.044602E0,4.367332E0,3.402287E1,3.327437E1,1.3380305E1,5.197405E1,2.20409E0,7.1142755E0,2.8119116E2,3.3258314E0,7.288946E0,4.6628986E1,2.0739686E0,1.56278515E1,2.2153313E0,2.152001E0,3.2438602E1,1.5842654E0,1.1564212E1,2.1710155E1,5.3461328E0,8.034172E0,1.0552981E0,5.091875E1,1.1747854E0,1.0293047E0,5.994609E0,1.1196662E0,2.8016794E2,1.0232254E0,2.2034147E0,1.1224167E0,4.0444903E0,3.2444556E0,2.362325E0,4.426666E1,1.4236238E1,1.3916138E0],"tree_param":{"num_deleted":"0","num_feature":"30","num_nodes":"63","size_leaf_vector":"1"}},{"base_weights":[8.001896E-5,-1.1528676E0,1.1551503E0,4.3920365E-1,-1.1562312E0,6.9124925E-1,3.4776938E-1,5.854412E-1,-6.957607E-1,-3.648061E-1,-1.1570055E0,1.1391629E0,-2.7135092E-1,1.2685347E-1,8.523748E-1,-3.1046024E-1,1.706118E-1,6.2180823E-1,-9.995418E-1,-8.588946E-1,-3.4716302E-1,-1.9726105E-1,1.1579854E0,-8.9975846E-1,2.080323E-1,9.236749E-1,-4.8673788E-1,-2.5677903E-2,1.0138315E0,-1.4205532E-1,2.2011922E-1,9.3977946E-1,-2.5650156E-1,-1.127567E0,1.1207705E-1,3.3274093E-1,-1.1278956E0,9.027916E-2,3.4838414E-1,-1.1093968E0,-4.7974086E-1,5.028135E-1,-7.75951E-1,3.4782737E-1,-5.8621306E-2,1.9170094E-1,-2.2001715E-1,1.5704149E-1,-3.1929743E-1,-7.9576015E-2,3.2103097E-1,3.7194967E-1,-1.1219417E-1,-3.4643793E-1,-1.0087071E-1,3.8634259E-1,-1.5351203E-1,-3.466059E-1,-9.190455E-2,-3.5271046E-1,-1.1427074E-1,-3.1006253E-1,4.6774983E-2,2.3176214E-1,-3.1999198E-1,2.3556396E-1,-3.4015375E-1],"categories":[],"categories_nodes":[],"categories_segments":[],"categories_sizes":[],"default_left":[0,0,0,0,0,0,0,0,0,0,0,0,0,0,0,0,0,0,0,0,0,0,0,0,0,0,0,0,0,0,0,0,0,0,0,0,0,0,0,0,0,0,0,0,0,0,0,0,0,0,0,0,0,0,0,0,0,0,0,0,0,0,0,0,0,0,0],"id":4,"left_children":[1,3,5,7,9,11,-1,13,15,17,19,21,23,25,27,-1,29,31,33,35,-1,-1,37,39,41,43,45,47,49,-1,-1,51,-1,53,-1,55,57,-1,-1,59,61,63,65,-1,-1,-1,-1,-1,-1,-1,-1,-1,-1,-1,-1,-1,-1,-1,-1,-1,-1,-1,-1,-1,-1,-1,-1],"loss_changes":[8.986981E4,1.8135938E2,6.3015625E1,1.234515E1,2.0230469E1,1.2812254E2,0E0,7.757986E0,2.7227473E0,2.216606E1,1.0585938E0,7.609558E0,2.8788599E1,1.2583199E1,5.759405E0,0E0,1.5431191E0,7.4175105E0,4.1688995E0,9.015192E0,0E0,0E0,2.1743774E-1,3.1019592E0,1.6247671E1,3.1659622E0,4.543521E0,4.6962004E0,2.7443733E0,0E0,0E0,5.220001E0,0E0,3.7204742E-2,0E0,5.285166E0,1.4722633E-1,0E0,0E0,8.452225E-1,5.6188E0,1.888899E1,8.151432E0,0E0,0E0,0E0,0E0,0E0,0E0,0E0,0E0,0E0,0E0,0E0,0E0,0E0,0E0,0E0,0E0,0E0,0E0,0E0,0E0,0E0,0E0,0E0,0E0],"parents":[2147483647,0,0,1,1,2,2,3,3,4,4,5,5,7,7,8,8,9,9,10,10,11,11,12,12,13,13,14,14,16,16,17,17,18,18,19,19,22,22,23,23,24,24,25,25,26,26,27,27,28,28,31,31,33,33,35,35,36,36,39,39,40,40,41,41,42,42],"right_children":[2,4,6,8,10,12,-1,14,16,18,20,22,24,26,28,-1,30,32,34,36,-1,-1,38,40,42,44,46,48,50,-1,-1,52,-1,54,-1,56,58,-1,-1,60,62,64,66,-1,-1,-1,-1,-1,-1,-1,-1,-1,-1,-1,-1,-1,-1,-1,-1,-1,-1,-1,-1,-1,-1,-1,-1],"split_conditions":[2.84439E5,-1.8991226E-1,2.86679E5,1.1344819E-1,-6.112363E-1,1.3064155E-1,3.4776938E-1,-5.219896E-1,7.4199773E-3,8.988643E-1,-4.8148543E-1,-1.5064279E0,-4.5857954E-1,-8.016915E-1,3.5255566E-2,-3.1046024E-1,6.2332076E-1,7.695844E-1,7.455258E-1,5.5438924E-1,-3.4716302E-1,-1.9726105E-1,-6.557648E-1,-8.3761626E-1,1.2672291E0,-2.3127037E-1,1.9358312E-1,3.436269E-1,-2.476251E0,-1.4205532E-1,2.2011922E-1,3.9266844E0,-2.5650156E-1,7.8559667E-1,1.1207705E-1,-1.1592036E-1,7.253208E-1,9.027916E-2,3.4838414E-1,6.580538E-1,-1.340333E-1,-7.0625977E-3,-1.9863902E-1,3.4782737E-1,-5.8621306E-2,1.9170094E-1,-2.2001715E-1,1.5704149E-1,-3.1929743E-1,-7.9576015E-2,3.2103097E-1,3.7194967E-1,-1.1219417E-1,-3.4643793E-1,-1.0087071E-1,3.8634259E-1,-1.5351203E-1,-3.466059E-1,-9.190455E-2,-3.5271046E-1,-1.1427074E-1,-3.1006253E-1,4.6774983E-2,2.3176214E-1,-3.1999198E-1,2.3556396E-1,-3.4015375E-1],"split_indices":[0,17,0,10,14,12,0,26,21,7,14,11,4,26,4,0,11,9,26,7,0,0,4,4,1,14,2,27,3,0,0,17,0,13,0,8,11,0,0,25,28,2,14,0,0,0,0,0,0,0,0,0,0,0,0,0,0,0,0,0,0,0,0,0,0,0,0],"split_type":[0,0,0,0,0,0,0,0,0,0,0,0,0,0,0,0,0,0,0,0,0,0,0,0,0,0,0,0,0,0,0,0,0,0,0,0,0,0,0,0,0,0,0,0,0,0,0,0,0,0,0,0,0,0,0,0,0,0,0,0,0,0,0,0,0,0,0],"sum_hessian":[6.748123E4,3.3771645E4,3.3709582E4,7.09257E1,3.370072E4,2.9543967E2,3.341414E4,6.3259087E1,7.66661E0,3.3403034E1,3.3667316E4,2.0149658E2,9.3943085E1,2.3817032E1,3.9442055E1,5.3701835E0,2.2964258E0,1.3084791E1,2.0318243E1,2.5953243E1,3.3641363E4,1.7372255E0,1.9975935E2,4.0273277E1,5.3669807E1,1.01416E1,1.3675433E1,6.2567616E0,3.318529E1,1.1453832E0,1.1510427E0,1.1065857E1,2.0189347E0,1.8748999E1,1.5692453E0,4.736092E0,2.1217152E1,1.118631E0,1.9864073E2,2.5769796E1,1.4503481E1,4.1674103E1,1.1995703E1,8.347112E0,1.7944876E0,2.1719208E0,1.1503512E1,4.4172797E0,1.8394818E0,1.2419221E0,3.194337E1,9.054215E0,2.0116413E0,1.7681364E1,1.067634E0,1.9760994E0,2.7599926E0,2.0137802E1,1.0793488E0,2.305733E1,2.7124667E0,7.416285E0,7.0871964E0,3.599564E1,5.678462E0,2.014467E0,9.9812355E0],"tree_param":{"num_deleted":"0","num_feature":"30","num_nodes":"67","size_leaf_vector":"1"}},{"base_weights":[1.1072117E-4,-1.1051486E0,1.1079806E0,4.863936E-1,-1.1084414E0,6.2627995E-1,3.3373198E-1,6.72581E-1,-2.9577675E-1,-4.695375E-2,-1.10919E0,1.1012919E0,-2.3909771E-1,4.4879258E-2,9.087829E-1,2.7691334E-1,-6.52584E-1,-8.158582E-1,8.928285E-1,-7.0274687E-1,-3.329189E-1,-1.7534504E-2,3.3280563E-1,-1.0261667E0,3.4365803E-2,9.36267E-1,-8.203662E-1,1.014761E0,3.0045676E-1,-8.3888763E-1,7.791297E-2,1.7235234E-1,-3.1715792E-1,3.2490322E-1,-2.8918402E-3,-1.0395409E0,1.5725534E-1,-3.317871E-1,-2.0514181E-1,3.304134E-1,-9.1878E-1,7.409519E-2,3.0462366E-1,1.3326564E-1,-3.3433476E-1,4.6847686E-2,3.2101905E-1,-3.3599487E-1,2.471891E-1,-3.267374E-1,-1.05783835E-1,-5.8067508E-2,-3.3555374E-1,2.1731223E-1,-2.180921E-1,1.13330536E-1,-1.9450215E-1,1.7399292E-1,-3.0982476E-1,1.2920414E-1,-3.2086083E-1],"categories":[],"categories_nodes":[],"categories_segments":[],"categories_sizes":[],"default_left":[0,0,0,0,0,0,0,0,0,0,0,0,0,0,0,0,0,0,0,0,0,0,0,0,0,0,0,0,0,0,0,0,0,0,0,0,0,0,0,0,0,0,0,0,0,0,0,0,0,0,0,0,0,0,0,0,0,0,0,0,0],"id":5,"left_children":[1,3,5,7,9,11,-1,13,15,17,19,21,23,25,27,-1,29,31,33,35,-1,-1,-1,37,39,41,43,45,47,49,-1,-1,-1,-1,-1,51,53,-1,55,57,59,-1,-1,-1,-1,-1,-1,-1,-1,-1,-1,-1,-1,-1,-1,-1,-1,-1,-1,-1,-1],"loss_changes":[6.3417805E4,1.364082E2,5.486328E1,8.095613E0,2.0513672E1,9.872932E1,0E0,6.4982433E0,5.4384103E0,1.466034E1,4.8867188E0,1.5121765E0,1.8483084E1,1.0879795E1,1.7576942E0,0E0,1.7794764E0,4.340854E0,1.5814877E0,1.0883326E1,0E0,0E0,0E0,1.2230682E0,1.852571E1,1.2697506E-1,3.1674027E0,1.1066761E0,5.5089197E0,5.7315016E-1,0E0,0E0,0E0,0E0,0E0,1.5690746E0,6.1850257E0,0E0,1.068577E0,1.7611563E1,3.6279106E0,0E0,0E0,0E0,0E0,0E0,0E0,0E0,0E0,0E0,0E0,0E0,0E0,0E0,0E0,0E0,0E0,0E0,0E0,0E0,0E0],"parents":[2147483647,0,0,1,1,2,2,3,3,4,4,5,5,7,7,8,8,9,9,10,10,11,11,12,12,13,13,14,14,16,16,17,17,18,18,19,19,23,23,24,24,25,25,26,26,27,27,28,28,29,29,35,35,36,36,38,38,39,39,40,40],"right_children":[2,4,6,8,10,12,-1,14,16,18,20,22,24,26,28,-1,30,32,34,36,-1,-1,-1,38,40,42,44,46,48,50,-1,-1,-1,-1,-1,52,54,-1,56,58,60,-1,-1,-1,-1,-1,-1,-1,-1,-1,-1,-1,-1,-1,-1,-1,-1,-1,-1,-1,-1],"split_conditions":[2.84439E5,-3.3626166E-1,2.86679E5,-4.0930736E-1,-7.6427543E-1,-1.622884E-1,3.3373198E-1,-6.540331E-1,-2.381707E-1,-1.7599206E-1,-4.8148543E-1,-6.557648E-1,-8.3761626E-1,-8.016915E-1,1.6683203E0,2.7691334E-1,6.316137E-1,-1.3621786E-1,-4.0328252E-1,1.0403769E-1,-3.329189E-1,-1.7534504E-2,3.3280563E-1,3.0616206E-1,1.216875E0,-2.3763232E0,1.8276848E-1,-1.6196387E-1,4.2937058E-1,2.909733E-1,7.791297E-2,1.7235234E-1,-3.1715792E-1,3.2490322E-1,-2.8918402E-3,-6.7172694E-1,7.2985893E-1,-3.317871E-1,7.1439035E-2,-7.5772464E-2,3.0826274E-1,7.409519E-2,3.0462366E-1,1.3326564E-1,-3.3433476E-1,4.6847686E-2,3.2101905E-1,-3.3599487E-1,2.471891E-1,-3.267374E-1,-1.05783835E-1,-5.8067508E-2,-3.3555374E-1,2.1731223E-1,-2.180921E-1,1.13330536E-1,-1.9450215E-1,1.7399292E-1,-3.0982476E-1,1.2920414E-1,-3.2086083E-1],"split_indices":[0,17,0,14,14,14,0,26,8,21,14,4,4,26,25,0,23,10,3,4,0,0,0,19,1,28,8,4,21,22,0,0,0,0,0,15,7,0,5,8,10,0,0,0,0,0,0,0,0,0,0,0,0,0,0,0,0,0,0,0,0],"split_type":[0,0,0,0,0,0,0,0,0,0,0,0,0,0,0,0,0,0,0,0,0,0,0,0,0,0,0,0,0,0,0,0,0,0,0,0,0,0,0,0,0,0,0,0,0,0,0,0,0,0,0,0,0,0,0,0,0,0,0,0,0],"sum_hessian":[5.1789477E4,2.5925285E4,2.5864191E4,5.322416E1,2.587206E4,2.3853902E2,2.5625652E4,4.310385E1,1.0120309E1,1.828019E1,2.585378E4,1.5382874E2,8.471028E1,1.2110483E1,3.0993366E1,1.9324113E0,8.187898E0,1.0126679E1,8.153511E0,3.6010494E1,2.581777E4,1.0185912E0,1.5281013E2,2.1133223E1,6.3577057E1,5.924697E0,6.1857867E0,2.5826027E1,5.167339E0,6.8661857E0,1.3217113E0,1.2935878E0,8.833092E0,6.569111E0,1.5843999E0,2.5726656E1,1.0283838E1,1.8945026E1,2.188196E0,4.9008373E1,1.4568684E1,1.0346321E0,4.8900647E0,1.0707853E0,5.115001E0,1.7941759E0,2.403185E1,1.0847323E0,4.082607E0,3.7148125E0,3.1513734E0,2.4911537E0,2.3235502E1,6.375538E0,3.9083E0,1.0088946E0,1.1793014E0,4.191015E1,7.098225E0,1.2774112E0,1.3291272E1],"tree_param":{"num_deleted":"0","num_feature":"30","num_nodes":"61","size_leaf_vector":"1"}},{"base_weights":[1.6432715E-4,-1.0718889E0,1.0754812E0,3.2969233E-1,-1.075653E0,5.6599605E-1,3.2415313E-1,9.8131883E-1,1.2814978E-1,-2.7695313E-1,-1.0765764E0,1.0519834E0,-2.3770812E-1,2.1296643E-2,3.1920627E-1,-7.504932E-1,2.4831589E-1,5.105568E-1,-8.4130573E-1,-7.1072036E-1,-3.230614E-1,-1.5518346E-1,1.0750263E0,3.0218253E-1,-6.6336304E-1,-3.2099414E-1,5.347417E-2,5.4094577E-1,-3.7315074E-1,7.796599E-1,-2.1593873E-1,-9.9714816E-1,9.1413975E-2,2.5078532E-1,-1.0085123E0,3.24065E-1,8.3287954E-2,5.076787E-1,-3.9922932E-1,-8.9363486E-1,-7.5105175E-2,2.0819284E-1,-2.4876902E-1,9.307842E-2,-2.4891515E-1,3.200495E-1,-8.371428E-2,-8.862612E-2,-3.1077126E-1,2.8836063E-1,-1.25231E-1,-8.810725E-2,-3.1295532E-1,-1.951111E-2,3.2814825E-1,6.0642515E-3,-3.149056E-1,-2.7601025E-1,9.4305374E-2],"categories":[],"categories_nodes":[],"categories_segments":[],"categories_sizes":[],"default_left":[0,0,0,0,0,0,0,0,0,0,0,0,0,0,0,0,0,0,0,0,0,0,0,0,0,0,0,0,0,0,0,0,0,0,0,0,0,0,0,0,0,0,0,0,0,0,0,0,0,0,0,0,0,0,0,0,0,0,0],"id":6,"left_children":[1,3,5,7,9,11,-1,13,15,17,19,21,23,-1,-1,25,27,29,31,33,-1,-1,35,37,39,-1,-1,41,43,45,-1,47,-1,49,51,-1,-1,53,-1,55,57,-1,-1,-1,-1,-1,-1,-1,-1,-1,-1,-1,-1,-1,-1,-1,-1,-1,-1],"loss_changes":[4.5370977E4,1.0432617E2,4.9734375E1,6.907134E0,1.4197266E1,7.60859E1,0E0,8.6554813E-1,4.6262374E0,1.11165695E1,1.3535156E0,4.9379425E0,1.7201315E1,0E0,0E0,1.7656384E0,7.065835E0,4.090907E0,2.8730907E0,5.6235027E0,0E0,0E0,1.9570923E-1,1.1849943E1,5.578642E0,0E0,0E0,6.0415187E0,4.212179E0,3.103169E0,0E0,4.4736862E-2,0E0,2.8870149E0,5.350399E-2,0E0,0E0,1.0243351E1,0E0,4.2796974E0,4.5068E0,0E0,0E0,0E0,0E0,0E0,0E0,0E0,0E0,0E0,0E0,0E0,0E0,0E0,0E0,0E0,0E0,0E0,0E0],"parents":[2147483647,0,0,1,1,2,2,3,3,4,4,5,5,7,7,8,8,9,9,10,10,11,11,12,12,15,15,16,16,17,17,18,18,19,19,22,22,23,23,24,24,27,27,28,28,29,29,31,31,33,33,34,34,37,37,39,39,40,40],"right_children":[2,4,6,8,10,12,-1,14,16,18,20,22,24,-1,-1,26,28,30,32,34,-1,-1,36,38,40,-1,-1,42,44,46,-1,48,-1,50,52,-1,-1,54,-1,56,58,-1,-1,-1,-1,-1,-1,-1,-1,-1,-1,-1,-1,-1,-1,-1,-1,-1,-1],"split_conditions":[2.84439E5,-1.8991226E-1,2.86679E5,-1.1551311E0,-6.112363E-1,1.3064155E-1,3.2415313E-1,-2.4862936E0,-1.471485E0,8.988643E-1,-4.8148543E-1,-1.5064279E0,4.267793E-1,2.1296643E-2,3.1920627E-1,1.4039702E0,-4.358143E-1,7.695844E-1,7.455258E-1,5.5438924E-1,-3.230614E-1,-1.5518346E-1,9.8266095E-1,-6.0100242E-2,-1.3623032E-1,-3.2099414E-1,5.347417E-2,1.1246177E0,9.912918E-2,3.9266844E0,-2.1593873E-1,2.23016E3,9.1413975E-2,-1.1592036E-1,-3.0742863E-1,3.24065E-1,8.3287954E-2,3.442239E-1,-3.9922932E-1,-1.3061137E0,-3.6761266E-1,2.0819284E-1,-2.4876902E-1,9.307842E-2,-2.4891515E-1,3.200495E-1,-8.371428E-2,-8.862612E-2,-3.1077126E-1,2.8836063E-1,-1.25231E-1,-8.810725E-2,-3.1295532E-1,-1.951111E-2,3.2814825E-1,6.0642515E-3,-3.149056E-1,-2.7601025E-1,9.4305374E-2],"split_indices":[0,17,0,9,14,12,0,6,16,7,14,11,14,0,0,19,14,9,26,7,0,0,10,8,4,0,0,7,28,17,0,29,0,8,12,0,0,25,0,13,20,0,0,0,0,0,0,0,0,0,0,0,0,0,0,0,0,0,0],"split_type":[0,0,0,0,0,0,0,0,0,0,0,0,0,0,0,0,0,0,0,0,0,0,0,0,0,0,0,0,0,0,0,0,0,0,0,0,0,0,0,0,0,0,0,0,0,0,0,0,0,0,0,0,0,0,0,0,0,0,0],"sum_hessian":[3.93553E4,1.9707557E4,1.9647742E4,5.255109E1,1.9655006E4,1.9315707E2,1.9454584E4,1.15000725E1,4.1051018E1,2.304643E1,1.963196E4,1.2017825E2,7.297883E1,1.1125216E0,1.038755E1,4.3077445E0,3.6743275E1,9.660826E0,1.3385605E1,1.7756706E1,1.9614203E4,1.42876E0,1.187495E2,3.230015E1,4.0678677E1,3.0920134E0,1.2157309E0,2.5068731E1,1.1674542E1,8.227595E0,1.4332305E0,1.1897601E1,1.488004E0,4.2363377E0,1.3520368E1,1.17629166E2,1.1203289E0,2.9301804E1,2.9983463E0,2.886172E1,1.18169565E1,2.2994108E1,2.0746224E0,4.804046E0,6.8704967E0,6.4660287E0,1.7615671E0,1.0740005E0,1.0823601E1,1.840826E0,2.3955119E0,1.0635738E0,1.2456794E1,1.5270403E1,1.4031401E1,4.3365955E0,2.4525124E1,3.2984934E0,8.518463E0],"tree_param":{"num_deleted":"0","num_feature":"30","num_nodes":"59","size_leaf_vector":"1"}},{"base_weights":[2.2225529E-4,-1.0477755E0,1.0524404E0,2.6807207E-1,-1.0519058E0,5.1211375E-1,3.1745648E-1,2.958555E-1,1.0248177E-1,-4.35309E-1,-3.1598687E-1,1.0350407E0,-1.8732779E-1,4.2108092E-1,-1.8362197E-1,4.5555392E-1,-8.753673E-1,-1.084599E-2,3.1429133E-1,-7.2670233E-1,1.3308112E-1,3.0373254E-1,-1.9201444E-1,4.4433337E-1,-5.0441414E-1,-2.4848312E-1,8.1064314E-1,-3.081863E-1,-1.9328588E-1,2.012112E-1,-8.2120013E-1,5.3826547E-1,-3.9410225E-1,-1.9203049E-1,9.322285E-2,2.8704536E-1,-2.6762113E-1,-2.2005355E-1,1.5198763E-1,-1.7875345E-1,1.6062908E-1,3.129801E-1,-1.2478371E-1,1.9340174E-1,-2.5284475E-1,-2.7216762E-1,1.7029989E-1,-1.9424465E-1,2.267288E-1,-2.33589E-1,1.3368393E-1],"categories":[],"categories_nodes":[],"categories_segments":[],"categories_sizes":[],"default_left":[0,0,0,0,0,0,0,0,0,0,0,0,0,0,0,0,0,0,0,0,0,0,0,0,0,0,0,0,0,0,0,0,0,0,0,0,0,0,0,0,0,0,0,0,0,0,0,0,0,0,0],"id":7,"left_children":[1,3,5,7,9,11,-1,-1,13,15,-1,17,19,21,23,25,27,-1,-1,29,31,-1,33,35,37,39,41,-1,43,-1,45,47,49,-1,-1,-1,-1,-1,-1,-1,-1,-1,-1,-1,-1,-1,-1,-1,-1,-1,-1],"loss_changes":[3.2763037E4,8.118262E1,4.55E1,5.5323133E0,1.2201172E1,5.7979103E1,0E0,0E0,3.688144E0,1.4092281E1,0E0,1.2597961E0,1.192346E1,7.0996647E0,4.568698E0,3.2531075E0,2.259632E0,0E0,0E0,3.9388962E0,9.563028E0,0E0,2.4948716E0,6.2121053E0,3.7865386E0,1.6418601E0,2.8161788E0,0E0,3.5657434E0,0E0,3.4400368E0,6.981858E0,6.6761446E0,0E0,0E0,0E0,0E0,0E0,0E0,0E0,0E0,0E0,0E0,0E0,0E0,0E0,0E0,0E0,0E0,0E0,0E0],"parents":[2147483647,0,0,1,1,2,2,3,3,4,4,5,5,8,8,9,9,11,11,12,12,13,13,14,14,15,15,16,16,19,19,20,20,22,22,23,23,24,24,25,25,26,26,28,28,30,30,31,31,32,32],"right_children":[2,4,6,8,10,12,-1,-1,14,16,-1,18,20,22,24,26,28,-1,-1,30,32,-1,34,36,38,40,42,-1,44,-1,46,48,50,-1,-1,-1,-1,-1,-1,-1,-1,-1,-1,-1,-1,-1,-1,-1,-1,-1,-1],"split_conditions":[2.84439E5,-1.8991226E-1,2.86679E5,-1.2077317E0,-4.8148543E-1,-1.622884E-1,3.1745648E-1,2.958555E-1,5.247858E-1,9.910145E-3,-3.1598687E-1,-6.2142104E-1,-9.8473793E-1,-9.3085535E-2,3.0616206E-1,-1.3395593E0,8.0008537E-1,-1.084599E-2,3.1429133E-1,-1.3403889E0,6.9685113E-1,3.0373254E-1,-1.8553774E-1,-4.8148543E-1,1.2056539E0,-1.8629586E-2,3.0965462E-1,-3.081863E-1,1.6197134E-2,2.012112E-1,1.4792693E0,-8.940568E-1,6.283276E-1,-1.9203049E-1,9.322285E-2,2.8704536E-1,-2.6762113E-1,-2.2005355E-1,1.5198763E-1,-1.7875345E-1,1.6062908E-1,3.129801E-1,-1.2478371E-1,1.9340174E-1,-2.5284475E-1,-2.7216762E-1,1.7029989E-1,-1.9424465E-1,2.267288E-1,-2.33589E-1,1.3368393E-1],"split_indices":[0,17,0,9,14,14,0,0,28,10,0,4,11,7,19,24,4,0,0,20,12,0,23,14,4,27,6,0,15,0,20,4,3,0,0,0,0,0,0,0,0,0,0,0,0,0,0,0,0,0,0],"split_type":[0,0,0,0,0,0,0,0,0,0,0,0,0,0,0,0,0,0,0,0,0,0,0,0,0,0,0,0,0,0,0,0,0,0,0,0,0,0,0,0,0,0,0,0,0,0,0,0,0,0,0],"sum_hessian":[2.9709053E4,1.4884379E4,1.4824674E4,4.6374146E1,1.4838004E4,1.5698804E2,1.4667687E4,7.7611046E0,3.861304E1,3.3929592E1,1.4804075E4,8.95543E1,6.743375E1,1.8045816E1,2.0567223E1,1.1206902E1,2.272269E1,1.0191606E0,8.853514E1,2.4657463E1,4.2776283E1,8.854171E0,9.191647E0,6.824011E0,1.3743212E1,3.85795E0,7.348952E0,1.8169651E1,4.553041E0,1.1755911E0,2.3481873E1,2.4174864E1,1.860142E1,4.715622E0,4.4760246E0,5.1378007E0,1.68621E0,1.1428138E1,2.315074E0,2.839599E0,1.0183512E0,6.303033E0,1.0459191E0,1.9914066E0,2.5616345E0,2.2438818E1,1.043055E0,3.4405823E0,2.0734282E1,1.2808717E1,5.7927027E0],"tree_param":{"num_deleted":"0","num_feature":"30","num_nodes":"51","size_leaf_vector":"1"}},{"base_weights":[3.804776E-4,-1.0294333E0,1.0356487E0,2.2585511E-1,-1.0341798E0,4.632517E-1,3.126956E-1,3.4066805E-1,-7.4562645E-1,-3.9808258E-1,-1.0357211E0,-1.6522272E-1,1.0121692E0,6.60253E-1,3.5931483E-2,-6.414389E-2,-2.5242573E-1,3.670571E-1,-8.1262565E-1,-3.1148392E-1,-9.874524E-1,-4.931424E-1,2.5717452E-1,-1.2425545E-1,3.1175363E-1,2.9798576E-1,1.0297851E-1,-2.397319E-1,6.597632E-1,8.665903E-1,-4.9992E-2,-2.9690778E-1,-1.6763099E-1,-1.0099511E0,-5.377451E-1,3.4007436E-1,-6.918127E-1,7.598278E-1,-2.2889325E-1,1.0107054E-1,-2.3573558E-1,1.4543428E-1,-2.1591249E-1,-4.4498043E-3,2.7152497E-1,7.001358E-2,2.9304495E-1,-1.9552934E-1,1.24969326E-1,1.4591542E-1,-2.3176388E-1,-1.347589E-2,-3.0350742E-1,-2.6215148E-1,2.1500953E-1,-2.0513065E-1,2.223583E-1,-1.0450122E-1,-3.1661367E-1,2.839764E-1,-6.826166E-2,6.4056285E-2,-3.6503E-1],"categories":[],"categories_nodes":[],"categories_segments":[],"categories_sizes":[],"default_left":[0,0,0,0,0,0,0,0,0,0,0,0,0,0,0,0,0,0,0,0,0,0,0,0,0,0,0,0,0,0,0,0,0,0,0,0,0,0,0,0,0,0,0,0,0,0,0,0,0,0,0,0,0,0,0,0,0,0,0,0,0,0,0],"id":8,"left_children":[1,3,5,7,9,11,-1,13,15,17,19,21,23,25,27,-1,-1,29,31,-1,33,35,37,-1,-1,-1,39,41,43,45,47,-1,49,51,53,55,57,59,61,-1,-1,-1,-1,-1,-1,-1,-1,-1,-1,-1,-1,-1,-1,-1,-1,-1,-1,-1,-1,-1,-1,-1,-1],"loss_changes":[2.3806152E4,6.693262E1,4.2029297E1,5.04902E0,1.0521484E1,4.5035526E1,0E0,3.7873478E0,6.754184E-2,9.3633995E0,3.4960938E-1,8.644741E0,3.1103897E0,3.4319696E0,3.7848055E0,0E0,0E0,2.2791073E0,1.9866867E0,0E0,5.329529E0,6.0227633E0,6.900985E0,0E0,0E0,0E0,1.9776609E0,5.690155E0,1.1271145E0,1.1666107E-1,2.1790802E0,0E0,2.4581943E0,8.8079834E-1,1.3187437E1,3.5465894E0,3.1988974E0,2.7540832E0,6.713335E0,0E0,0E0,0E0,0E0,0E0,0E0,0E0,0E0,0E0,0E0,0E0,0E0,0E0,0E0,0E0,0E0,0E0,0E0,0E0,0E0,0E0,0E0,0E0,0E0],"parents":[2147483647,0,0,1,1,2,2,3,3,4,4,5,5,7,7,8,8,9,9,10,10,11,11,12,12,13,13,14,14,17,17,18,18,20,20,21,21,22,22,26,26,27,27,28,28,29,29,30,30,32,32,33,33,34,34,35,35,36,36,37,37,38,38],"right_children":[2,4,6,8,10,12,-1,14,16,18,20,22,24,26,28,-1,-1,30,32,-1,34,36,38,-1,-1,-1,40,42,44,46,48,-1,50,52,54,56,58,60,62,-1,-1,-1,-1,-1,-1,-1,-1,-1,-1,-1,-1,-1,-1,-1,-1,-1,-1,-1,-1,-1,-1,-1,-1],"split_conditions":[2.84439E5,-1.6295382E-1,2.86679E5,-2.1848693E-1,-4.8148543E-1,-1.2096035E-3,3.126956E-1,5.247858E-1,-2.8942639E-2,9.910145E-3,2.6478857E-1,-1.875043E-1,-7.3198855E-1,-9.3085535E-2,4.967007E-1,-6.414389E-2,-2.5242573E-1,-2.1143524E-1,8.0008537E-1,-3.1148392E-1,1.047555E0,-6.386218E-1,6.891956E-1,-1.2425545E-1,3.1175363E-1,2.9798576E-1,1.559076E0,3.4808826E-1,-5.219896E-1,-1.0445585E0,-4.85375E-1,-2.9690778E-1,1.6197134E-2,-4.7029223E-2,7.07994E-1,-7.3198855E-1,-2.8488147E-1,7.065184E-1,4.3092072E-1,1.0107054E-1,-2.3573558E-1,1.4543428E-1,-2.1591249E-1,-4.4498043E-3,2.7152497E-1,7.001358E-2,2.9304495E-1,-1.9552934E-1,1.24969326E-1,1.4591542E-1,-2.3176388E-1,-1.347589E-2,-3.0350742E-1,-2.6215148E-1,2.1500953E-1,-2.0513065E-1,2.223583E-1,-1.0450122E-1,-3.1661367E-1,2.839764E-1,-6.826166E-2,6.4056285E-2,-3.6503E-1],"split_indices":[0,17,0,12,14,11,0,28,10,10,4,4,4,7,21,0,0,10,4,0,17,20,10,0,0,0,13,20,26,24,15,0,15,17,1,4,2,12,18,0,0,0,0,0,0,0,0,0,0,0,0,0,0,0,0,0,0,0,0,0,0,0,0],"split_type":[0,0,0,0,0,0,0,0,0,0,0,0,0,0,0,0,0,0,0,0,0,0,0,0,0,0,0,0,0,0,0,0,0,0,0,0,0,0,0,0,0,0,0,0,0,0,0,0,0,0,0,0,0,0,0,0,0,0,0,0,0,0,0],"sum_hessian":[2.2327432E4,1.1193205E4,1.1134227E4,4.1989655E1,1.1151216E4,1.2906032E2,1.1005166E4,3.8132374E1,3.8572803E0,2.7580061E1,1.1123636E4,6.0495712E1,6.85646E1,1.8043287E1,2.0089088E1,1.082055E0,2.7752252E0,9.731946E0,1.7848114E1,1.0544219E4,5.794163E2,3.3962284E1,2.6533428E1,1.0078115E0,6.7556786E1,1.08041935E1,7.239094E0,1.4359511E1,5.7295766E0,3.937626E0,5.7943196E0,1.3584434E1,4.2636814E0,5.50623E2,2.879332E1,6.4017596E0,2.7560526E1,1.2767286E1,1.3766142E1,6.2223096E0,1.0167843E0,5.718127E0,8.641385E0,1.778496E0,3.9510803E0,1.0459976E0,2.8916283E0,2.3571103E0,3.4372096E0,2.142847E0,2.1208344E0,1.039361E0,5.495837E2,2.2948353E1,5.8449655E0,1.603708E0,4.7980514E0,1.5178713E1,1.2381814E1,1.0771214E1,1.9960723E0,1.00494175E1,3.7167244E0],"tree_param":{"num_deleted":"0","num_feature":"30","num_nodes":"63","size_leaf_vector":"1"}},{"base_weights":[4.7825725E-4,-1.0147507E0,1.0230743E0,1.733359E-1,-1.020254E0,4.1428596E-1,3.092697E-1,-5.869125E-1,3.348481E-1,-3.0814937E-1,-1.021923E0,9.7992265E-1,-1.5851006E-1,9.642327E-3,-7.3754686E-1,4.9558526E-1,-2.138677E-1,3.0454448E-1,-7.403436E-1,-3.076104E-1,-9.5810366E-1,-8.343656E-2,1.0099432E0,4.717616E-3,-9.496304E-1,-2.4903183E-1,-8.210841E-2,5.8981407E-1,-1.2554297E-1,2.0603177E-1,-5.58828E-1,5.4490983E-1,-1.5220153E-1,-2.8381792E-1,-5.2148797E-2,-9.862367E-1,-4.179536E-1,3.0563158E-1,8.723603E-2,-6.884978E-1,2.4644318E-1,-3.266106E-1,2.93806E-2,2.4212657E-1,2.0937234E-2,-2.7042496E-1,1.2544489E-1,-1.9018682E-2,2.8022775E-1,1.7533042E-1,-1.4800116E-1,-1.519719E-1,-2.9848596E-1,-2.3342171E-1,1.8649332E-1,-2.4216846E-2,-3.6611545E-1,1.4702527E-1,-1.7024238E-1],"categories":[],"categories_nodes":[],"categories_segments":[],"categories_sizes":[],"default_left":[0,0,0,0,0,0,0,0,0,0,0,0,0,0,0,0,0,0,0,0,0,0,0,0,0,0,0,0,0,0,0,0,0,0,0,0,0,0,0,0,0,0,0,0,0,0,0,0,0,0,0,0,0,0,0,0,0,0,0],"id":9,"left_children":[1,3,5,7,9,11,-1,13,15,17,19,21,23,-1,25,27,29,31,33,-1,35,-1,37,39,41,-1,-1,43,-1,-1,45,47,-1,-1,49,51,53,-1,-1,55,57,-1,-1,-1,-1,-1,-1,-1,-1,-1,-1,-1,-1,-1,-1,-1,-1,-1,-1],"loss_changes":[1.7371705E4,5.50791E1,3.928418E1,5.0552945E0,9.618164E0,3.4970757E1,0E0,7.0413446E-1,3.0406497E0,5.7795444E0,8.496094E-1,2.3280792E0,7.010101E0,0E0,2.6564121E-2,2.4893355E0,2.9429243E0,2.1077504E0,1.7331033E0,0E0,6.3091125E0,0E0,4.126358E-2,7.8723454E0,1.459156E0,0E0,0E0,2.6574059E0,0E0,0E0,2.5549061E0,1.887492E0,0E0,0E0,1.3993068E0,1.2506409E0,9.330934E0,0E0,0E0,3.828642E0,7.1828775E0,0E0,0E0,0E0,0E0,0E0,0E0,0E0,0E0,0E0,0E0,0E0,0E0,0E0,0E0,0E0,0E0,0E0,0E0],"parents":[2147483647,0,0,1,1,2,2,3,3,4,4,5,5,7,7,8,8,9,9,10,10,11,11,12,12,14,14,15,15,16,16,17,17,18,18,20,20,22,22,23,23,24,24,27,27,30,30,31,31,34,34,35,35,36,36,39,39,40,40],"right_children":[2,4,6,8,10,12,-1,14,16,18,20,22,24,-1,26,28,30,32,34,-1,36,-1,38,40,42,-1,-1,44,-1,-1,46,48,-1,-1,50,52,54,-1,-1,56,58,-1,-1,-1,-1,-1,-1,-1,-1,-1,-1,-1,-1,-1,-1,-1,-1,-1,-1],"split_conditions":[2.84439E5,-1.3372214E-1,2.86679E5,-1.6196387E-1,-5.158979E-1,1.3064155E-1,3.092697E-1,-5.959045E-1,1.2183437E0,9.910145E-3,2.6478857E-1,-1.5064279E0,-7.5772464E-2,9.642327E-3,-6.094892E-3,3.0614276E0,-2.4876934E-1,1.9597891E-1,2.13329E5,-3.076104E-1,1.0890726E0,-8.343656E-2,8.842377E-1,-1.2226379E0,1.4213574E0,-2.4903183E-1,-8.210841E-2,-8.325971E-2,-1.2554297E-1,2.0603177E-1,4.967007E-1,-1.1256496E0,-1.5220153E-1,-2.8381792E-1,2.22225E5,3.3732817E-2,1.4530966E-1,3.0563158E-1,8.723603E-2,6.786889E-2,1.2672291E0,-3.266106E-1,2.93806E-2,2.4212657E-1,2.0937234E-2,-2.7042496E-1,1.2544489E-1,-1.9018682E-2,2.8022775E-1,1.7533042E-1,-1.4800116E-1,-1.519719E-1,-2.9848596E-1,-2.3342171E-1,1.8649332E-1,-2.4216846E-2,-3.6611545E-1,1.4702527E-1,-1.7024238E-1],"split_indices":[0,17,0,4,14,12,0,15,28,10,4,11,8,0,21,25,24,6,0,0,17,0,10,11,10,0,0,7,0,0,21,24,0,0,0,14,25,0,0,13,1,0,0,0,0,0,0,0,0,0,0,0,0,0,0,0,0,0,0],"split_type":[0,0,0,0,0,0,0,0,0,0,0,0,0,0,0,0,0,0,0,0,0,0,0,0,0,0,0,0,0,0,0,0,0,0,0,0,0,0,0,0,0,0,0,0,0,0,0,0,0,0,0,0,0,0,0,0,0,0,0],"sum_hessian":[1.6731021E4,8.395758E3,8.335265E3,3.8569923E1,8.3571875E3,1.0645687E2,8.228808E3,6.2967687E0,3.2273155E1,1.9974394E1,8.337213E3,5.3205555E1,5.3251312E1,1.3862797E0,4.910489E0,2.503608E1,7.2370753E0,8.38412E0,1.1590274E1,7.8959097E3,4.4130338E2,1.047432E0,5.2158123E1,4.4967453E1,8.28386E0,3.4353848E0,1.4751045E0,2.3017939E1,2.0181408E0,1.7298414E0,5.5072336E0,6.7226496E0,1.6614702E0,8.634531E0,2.9557438E0,4.1867154E2,2.2631819E1,5.111401E1,1.0441132E0,1.1148309E1,3.3819145E1,7.278342E0,1.0055182E0,1.5845428E1,7.1725116E0,4.1346965E0,1.3725375E0,2.9495344E0,3.7731152E0,1.0770309E0,1.8787129E0,8.527401E0,4.1014413E2,1.6995953E1,5.635866E0,5.740519E0,5.40779E0,2.6334078E1,7.4850664E0],"tree_param":{"num_deleted":"0","num_feature":"30","num_nodes":"59","size_leaf_vector":"1"}},{"base_weights":[5.464783E-4,-1.0020789E0,1.0130426E0,4.06853E-2,-1.0094324E0,3.5621274E-1,3.0678138E-1,3.520687E-1,-7.871862E-1,-1.126047E-1,-1.0105747E0,9.8768336E-1,-1.1978538E-1,6.8401766E-1,-2.6306735E-2,-2.7396542E-1,9.0073064E-2,-2.5103498E-1,1.9801058E-1,-1.0150315E0,-9.2987335E-1,3.005112E-1,7.047186E-2,-8.127986E-1,5.338453E-2,9.5264214E-1,-6.558095E-2,7.030694E-1,-4.3843168E-1,2.2614817E-1,-1.6076837E-1,-8.6588584E-2,-1.0151601E0,-9.666941E-1,-3.889006E-1,-2.8931135E-1,4.3729253E-2,-2.395039E-1,4.7529516E-1,3.0459023E-1,7.189636E-2,1.901015E-1,-2.4613847E-1,1.769469E-2,2.6522422E-1,1.01080425E-1,-2.2878408E-1,9.8690204E-2,-1.7986685E-1,-1.19467765E-1,-3.0459803E-1,-1.3565603E-1,-2.9257306E-1,1.6242948E-1,-2.375349E-1,-4.490465E-3,-2.6891539E-1,-1.831296E-1,2.0905358E-1],"categories":[],"categories_nodes":[],"categories_segments":[],"categories_sizes":[],"default_left":[0,0,0,0,0,0,0,0,0,0,0,0,0,0,0,0,0,0,0,0,0,0,0,0,0,0,0,0,0,0,0,0,0,0,0,0,0,0,0,0,0,0,0,0,0,0,0,0,0,0,0,0,0,0,0,0,0,0,0],"id":10,"left_children":[1,3,5,7,9,11,-1,13,15,17,19,21,23,25,27,-1,-1,-1,29,31,33,-1,-1,35,37,39,41,43,45,-1,47,-1,49,51,53,-1,-1,55,57,-1,-1,-1,-1,-1,-1,-1,-1,-1,-1,-1,-1,-1,-1,-1,-1,-1,-1,-1,-1],"loss_changes":[1.2708172E4,4.8271484E1,3.875537E1,1.187916E1,6.2851562E0,2.7443386E1,0E0,4.2126E0,2.0024395E0,2.206049E0,1.2993164E0,1.7823029E-1,6.371111E0,3.652032E0,5.2889967E0,0E0,0E0,0E0,1.548315E0,2.5830078E-1,6.364258E0,0E0,0E0,1.6810951E0,5.442793E0,3.4584808E-1,3.496212E0,6.9009066E-1,3.0730152E0,0E0,1.3089422E0,0E0,2.0263672E-1,9.496155E-1,9.138196E0,0E0,0E0,3.8389468E0,4.7563787E0,0E0,0E0,0E0,0E0,0E0,0E0,0E0,0E0,0E0,0E0,0E0,0E0,0E0,0E0,0E0,0E0,0E0,0E0,0E0,0E0],"parents":[2147483647,0,0,1,1,2,2,3,3,4,4,5,5,7,7,8,8,9,9,10,10,11,11,12,12,13,13,14,14,18,18,19,19,20,20,23,23,24,24,25,25,26,26,27,27,28,28,30,30,32,32,33,33,34,34,37,37,38,38],"right_children":[2,4,6,8,10,12,-1,14,16,18,20,22,24,26,28,-1,-1,-1,30,32,34,-1,-1,36,38,40,42,44,46,-1,48,-1,50,52,54,-1,-1,56,58,-1,-1,-1,-1,-1,-1,-1,-1,-1,-1,-1,-1,-1,-1,-1,-1,-1,-1,-1,-1],"split_conditions":[2.84439E5,-4.8148543E-1,2.86679E5,8.988643E-1,-3.817164E-1,-2.3127037E-1,3.0678138E-1,3.6709714E-1,1.0732461E0,-3.5333723E-1,2.6478857E-1,2.2137754E0,-8.3761626E-1,1.3205379E0,-9.9838424E-1,-2.7396542E-1,9.0073064E-2,-2.5103498E-1,-7.279827E-1,-1.8991226E-1,1.047555E0,3.005112E-1,7.047186E-2,3.0616206E-1,-4.947047E-1,2.207697E-1,-6.4495486E-1,-2.562802E0,5.470922E-1,2.2614817E-1,-1.5175895E-1,-8.6588584E-2,-1.2229071E0,-5.9753716E-2,5.470232E-1,-2.8931135E-1,4.3729253E-2,-7.7676415E-2,-6.4164114E-1,3.0459023E-1,7.189636E-2,1.901015E-1,-2.4613847E-1,1.769469E-2,2.6522422E-1,1.01080425E-1,-2.2878408E-1,9.8690204E-2,-1.7986685E-1,-1.19467765E-1,-3.0459803E-1,-1.3565603E-1,-2.9257306E-1,1.6242948E-1,-2.375349E-1,-4.490465E-3,-2.6891539E-1,-1.831296E-1,2.0905358E-1],"split_indices":[0,14,0,7,17,14,0,20,26,6,4,20,4,16,9,0,0,0,18,17,17,0,0,19,11,20,13,6,28,0,10,0,7,14,10,0,0,2,22,0,0,0,0,0,0,0,0,0,0,0,0,0,0,0,0,0,0,0,0],"split_type":[0,0,0,0,0,0,0,0,0,0,0,0,0,0,0,0,0,0,0,0,0,0,0,0,0,0,0,0,0,0,0,0,0,0,0,0,0,0,0,0,0,0,0,0,0,0,0,0,0,0,0,0,0,0,0,0,0,0,0],"sum_hessian":[1.2516463E4,6.288891E3,6.2275713E3,4.400649E1,6.244885E3,8.990819E1,6.137663E3,3.239619E1,1.1610295E1,8.070635E0,6.236814E3,3.8181164E1,5.1727028E1,1.682651E1,1.5569682E1,1.0547999E1,1.0622959E0,1.9140961E0,6.156539E0,5.8994346E3,3.3737964E2,3.71584E1,1.0227617E0,9.602977E0,4.2124054E1,1.2187982E1,4.638527E0,5.366364E0,1.0203319E1,1.983159E0,4.1733804E0,1.4414622E0,5.897993E3,3.1514282E2,2.2236828E1,8.286601E0,1.3163757E0,2.5118937E1,1.7005116E1,1.081365E1,1.3743318E0,2.4913418E0,2.1471853E0,1.4681476E0,3.8982162E0,2.9966655E0,7.206653E0,2.0904682E0,2.0829122E0,2.2381084E0,5.895755E3,6.0318646E0,3.0911096E2,6.615797E0,1.5621031E1,1.9482271E1,5.6366653E0,2.5844574E0,1.4420658E1],"tree_param":{"num_deleted":"0","num_feature":"30","num_nodes":"59","size_leaf_vector":"1"}},{"base_weights":[7.1228034E-4,-9.90505E-1,1.0047357E0,4.2386275E-2,-9.989406E-1,3.0375457E-1,3.049599E-1,2.5998873E-1,-2.62251E-1,-2.6393175E-1,-1.0007235E0,9.43719E-1,-1.3966413E-1,4.5217806E-1,-2.0557624E-1,-5.497955E-1,1.9287853E-1,-1.0064784E0,-8.9878416E-1,-2.5062088E-2,2.9455587E-1,2.3856936E-1,-4.1942772E-1,2.8371784E-1,1.317178E-1,3.5040933E-1,-6.4717644E-1,-7.00889E-1,3.1273E-2,4.8724824E-1,-1.6950385E-1,-1.0381617E-1,-1.0066994E0,-9.4608194E-1,-3.2444847E-1,4.9566007E-1,-7.917742E-1,-6.812051E-1,9.364936E-3,-1.0404076E-1,1.4781429E-1,-4.775203E-2,2.0686918E-1,-2.6311424E-1,-3.0865623E-2,-3.4577478E-2,-2.3574609E-1,-5.6493793E-2,2.7183446E-1,-2.7765557E-1,-3.0281806E-1,-7.046999E-2,-2.8726295E-1,-2.1446891E-1,2.2163771E-1,1.9873856E-1,-2.2150756E-1,-3.3434805E-1,5.0468877E-2,-2.3707968E-1,1.178837E-1,1.02340184E-1,-2.4170865E-1],"categories":[],"categories_nodes":[],"categories_segments":[],"categories_sizes":[],"default_left":[0,0,0,0,0,0,0,0,0,0,0,0,0,0,0,0,0,0,0,0,0,0,0,0,0,0,0,0,0,0,0,0,0,0,0,0,0,0,0,0,0,0,0,0,0,0,0,0,0,0,0,0,0,0,0,0,0,0,0,0,0,0,0],"id":11,"left_children":[1,3,5,7,9,11,-1,13,-1,15,17,19,21,23,25,27,29,31,33,-1,-1,35,37,-1,39,41,43,45,-1,47,-1,-1,49,51,53,55,57,59,61,-1,-1,-1,-1,-1,-1,-1,-1,-1,-1,-1,-1,-1,-1,-1,-1,-1,-1,-1,-1,-1,-1,-1,-1],"loss_changes":[9.311455E3,4.106494E1,3.8129883E1,8.025498E0,5.855957E0,2.2367458E1,0E0,2.9891953E0,0E0,1.759099E0,1.828125E0,1.343401E0,5.0900826E0,3.548502E0,2.7176752E0,8.6817575E-1,1.5275202E0,2.939453E-1,6.709244E0,0E0,0E0,5.872429E0,3.089828E0,0E0,2.8039412E0,9.9804693E-1,6.611569E-1,2.4096012E-1,0E0,1.4665157E0,0E0,0E0,2.7832031E-2,1.7158966E0,9.318184E0,4.023646E0,1.5866482E0,2.3102775E0,3.3574307E0,0E0,0E0,0E0,0E0,0E0,0E0,0E0,0E0,0E0,0E0,0E0,0E0,0E0,0E0,0E0,0E0,0E0,0E0,0E0,0E0,0E0,0E0,0E0,0E0],"parents":[2147483647,0,0,1,1,2,2,3,3,4,4,5,5,7,7,9,9,10,10,11,11,12,12,13,13,14,14,15,15,16,16,17,17,18,18,21,21,22,22,24,24,25,25,26,26,27,27,29,29,32,32,33,33,34,34,35,35,36,36,37,37,38,38],"right_children":[2,4,6,8,10,12,-1,14,-1,16,18,20,22,24,26,28,30,32,34,-1,-1,36,38,-1,40,42,44,46,-1,48,-1,-1,50,52,54,56,58,60,62,-1,-1,-1,-1,-1,-1,-1,-1,-1,-1,-1,-1,-1,-1,-1,-1,-1,-1,-1,-1,-1,-1,-1,-1],"split_conditions":[2.84439E5,-4.8148543E-1,2.86679E5,8.6951977E-1,-4.7029223E-2,1.1015109E-1,3.049599E-1,8.2142025E-1,-2.62251E-1,1.03258505E-1,2.6478857E-1,-1.3002878E0,4.0885115E-1,2.207697E-1,-5.310946E-1,1.8508698E-1,5.247858E-1,-1.2229071E0,1.047555E0,-2.5062088E-2,2.9455587E-1,8.0771136E-1,-1.3623032E-1,2.8371784E-1,7.498153E-1,1.5330814E-1,-1.7421697E-1,3.15821E3,3.1273E-2,1.8642221E-1,-1.6950385E-1,-1.0381617E-1,8.646553E-2,-5.9753716E-2,8.492641E-1,-6.0100242E-2,-2.063939E-1,1.3677075E0,9.057821E-1,-1.0404076E-1,1.4781429E-1,-4.775203E-2,2.0686918E-1,-2.6311424E-1,-3.0865623E-2,-3.4577478E-2,-2.3574609E-1,-5.6493793E-2,2.7183446E-1,-2.7765557E-1,-3.0281806E-1,-7.046999E-2,-2.8726295E-1,-2.1446891E-1,2.2163771E-1,1.9873856E-1,-2.2150756E-1,-3.3434805E-1,5.0468877E-2,-2.3707968E-1,1.178837E-1,1.02340184E-1,-2.4170865E-1],"split_indices":[0,14,0,10,17,12,0,16,0,23,4,11,14,20,13,21,28,7,17,0,0,7,4,0,4,28,9,29,0,4,0,0,14,14,1,8,4,7,16,0,0,0,0,0,0,0,0,0,0,0,0,0,0,0,0,0,0,0,0,0,0,0,0],"split_type":[0,0,0,0,0,0,0,0,0,0,0,0,0,0,0,0,0,0,0,0,0,0,0,0,0,0,0,0,0,0,0,0,0,0,0,0,0,0,0,0,0,0,0,0,0,0,0,0,0,0,0,0,0,0,0,0,0,0,0,0,0,0,0],"sum_hessian":[9.354315E3,4.707184E3,4.6471313E3,3.809965E1,4.6690845E3,7.735741E1,4.569774E3,3.136866E1,6.7309895E0,1.1658796E1,4.657426E3,3.1199877E1,4.6157528E1,2.2223398E1,9.145263E0,7.0459886E0,4.6128078E0,4.400144E3,2.5728183E2,1.0741231E0,3.0125753E1,1.968761E1,2.6469917E1,7.980816E0,1.4242582E1,4.1397347E0,5.005528E0,5.665529E0,1.3804599E0,3.5795774E0,1.0332301E0,1.9961591E0,4.398148E3,2.3710818E2,2.0173632E1,1.6171455E1,3.5161548E0,1.607034E1,1.0399579E1,6.1412897E0,8.101293E0,1.8662914E0,2.2734432E0,3.0894141E0,1.9161136E0,1.016118E0,4.6494107E0,1.5806617E0,1.9989159E0,1.5233511E2,4.245813E3,4.101494E0,2.330067E2,1.49948015E1,5.1788297E0,1.4653867E1,1.5175898E0,2.5110893E0,1.0050654E0,1.482901E1,1.2413282E0,7.80431E0,2.5952694E0],"tree_param":{"num_deleted":"0","num_feature":"30","num_nodes":"63","size_leaf_vector":"1"}},{"base_weights":[8.170734E-4,-9.7870296E-1,9.976596E-1,-6.5718524E-2,-9.9013674E-1,2.5609875E-1,3.0361602E-1,3.6931604E-1,-6.398397E-1,-2.7420136E-1,-9.916704E-1,-1.22590035E-1,9.271298E-1,7.878453E-1,-1.2092734E-2,1.6637486E-1,-7.96717E-1,-4.669036E-1,1.5516104E-1,-9.990933E-1,-8.642803E-1,1.2936953E-1,-4.9958873E-1,-3.703852E-2,2.9348618E-1,9.516679E-1,-6.361164E-2,2.340331E-1,-6.612881E-1,5.358121E-1,-1.4113346E-1,-8.525424E-1,9.154895E-3,-7.261927E-2,-2.6289E-1,-8.975163E-2,-9.99388E-1,-9.191676E-1,-2.9465637E-1,3.3869496E-1,-4.412574E-1,-8.650434E-1,2.5082457E-1,3.212612E-1,-2.7274486E-2,-1.8155394E-1,1.22006744E-1,-2.4924667E-1,-2.087836E-2,2.2407417E-1,1.7810468E-2,-8.539338E-2,-2.6757464E-1,-1.7326207E-1,7.92358E-2,-3.0032796E-1,-2.4724849E-1,-3.7046947E-2,-2.8022066E-1,-2.4113126E-1,2.1361205E-1,1.762133E-1,-5.940814E-2,1.7835812E-1,-2.0761895E-1,-1.5862696E-2,-3.1096116E-1,2.878745E-1,-2.090109E-1],"categories":[],"categories_nodes":[],"categories_segments":[],"categories_sizes":[],"default_left":[0,0,0,0,0,0,0,0,0,0,0,0,0,0,0,0,0,0,0,0,0,0,0,0,0,0,0,0,0,0,0,0,0,0,0,0,0,0,0,0,0,0,0,0,0,0,0,0,0,0,0,0,0,0,0,0,0,0,0,0,0,0,0,0,0,0,0,0,0],"id":12,"left_children":[1,3,5,7,9,11,-1,13,15,17,19,21,23,25,27,29,31,33,-1,35,37,39,41,-1,-1,43,-1,45,47,49,-1,51,-1,53,-1,-1,55,57,59,61,63,65,67,-1,-1,-1,-1,-1,-1,-1,-1,-1,-1,-1,-1,-1,-1,-1,-1,-1,-1,-1,-1,-1,-1,-1,-1,-1,-1],"loss_changes":[6.8271055E3,3.6749023E1,3.6729492E1,1.1398287E1,3.552246E0,1.72206E1,0E0,4.1693354E0,2.6154728E0,1.5877008E0,2.4223633E0,4.2363043E0,1.4323235E0,2.2395015E0,2.490638E0,1.1990107E0,7.929125E-1,1.1670792E0,0E0,3.7670898E-1,5.9431305E0,3.3886864E0,5.0982203E0,0E0,0E0,1.4483824E0,0E0,1.8890562E0,3.7153447E-1,2.588778E-1,0E0,9.47361E-2,0E0,9.9828947E-1,0E0,0E0,1.538086E-1,2.028473E0,1.0279368E1,2.840008E0,2.414988E0,1.6436644E0,5.103927E0,0E0,0E0,0E0,0E0,0E0,0E0,0E0,0E0,0E0,0E0,0E0,0E0,0E0,0E0,0E0,0E0,0E0,0E0,0E0,0E0,0E0,0E0,0E0,0E0,0E0,0E0],"parents":[2147483647,0,0,1,1,2,2,3,3,4,4,5,5,7,7,8,8,9,9,10,10,11,11,12,12,13,13,14,14,15,15,16,16,17,17,19,19,20,20,21,21,22,22,25,25,27,27,28,28,29,29,31,31,33,33,36,36,37,37,38,38,39,39,40,40,41,41,42,42],"right_children":[2,4,6,8,10,12,-1,14,16,18,20,22,24,26,28,30,32,34,-1,36,38,40,42,-1,-1,44,-1,46,48,50,-1,52,-1,54,-1,-1,56,58,60,62,64,66,68,-1,-1,-1,-1,-1,-1,-1,-1,-1,-1,-1,-1,-1,-1,-1,-1,-1,-1,-1,-1,-1,-1,-1,-1,-1,-1],"split_conditions":[2.84439E5,-3.4781492E-1,2.86679E5,5.2590066E-1,-4.7029223E-2,-1.2096035E-3,3.0361602E-1,3.6709714E-1,-2.7383336E-1,9.862747E-1,2.6478857E-1,6.9685113E-1,-6.104968E-1,1.9480304E0,1.0781577E0,2.26966E-1,-2.0549E-2,-3.0742863E-1,1.5516104E-1,-1.2229071E0,1.047555E0,-1.3419467E-1,6.497703E-1,-3.703852E-2,2.9348618E-1,1.6661854E0,-6.361164E-2,3.5255566E-2,6.249387E-1,-1.3621786E-1,-1.4113346E-1,6.357281E-1,9.154895E-3,-9.169549E-2,-2.6289E-1,-8.975163E-2,1.5569469E0,-5.9753716E-2,1.7439278E-2,1.756529E4,-5.651022E-1,3.0826274E-1,9.572809E-1,3.212612E-1,-2.7274486E-2,-1.8155394E-1,1.22006744E-1,-2.4924667E-1,-2.087836E-2,2.2407417E-1,1.7810468E-2,-8.539338E-2,-2.6757464E-1,-1.7326207E-1,7.92358E-2,-3.0032796E-1,-2.4724849E-1,-3.7046947E-2,-2.8022066E-1,-2.4113126E-1,2.1361205E-1,1.762133E-1,-5.940814E-2,1.7835812E-1,-2.0761895E-1,-1.5862696E-2,-3.1096116E-1,2.878745E-1,-2.090109E-1],"split_indices":[0,14,0,7,17,11,0,20,12,6,4,12,4,18,15,24,21,12,0,7,17,8,3,0,0,13,0,4,19,10,0,7,0,4,0,0,7,14,28,29,1,10,3,0,0,0,0,0,0,0,0,0,0,0,0,0,0,0,0,0,0,0,0,0,0,0,0,0,0],"split_type":[0,0,0,0,0,0,0,0,0,0,0,0,0,0,0,0,0,0,0,0,0,0,0,0,0,0,0,0,0,0,0,0,0,0,0,0,0,0,0,0,0,0,0,0,0,0,0,0,0,0,0,0,0,0,0,0,0,0,0,0,0,0,0,0,0,0,0,0,0],"sum_hessian":[6.9899253E3,3.5256045E3,3.4643206E3,4.3690376E1,3.481914E3,6.63205E1,3.398E3,2.5058943E1,1.8631433E1,7.8273344E0,3.4740867E3,4.2917698E1,2.3402805E1,1.1439966E1,1.3618977E1,3.024998E0,1.5606437E1,6.6243725E0,1.2029622E0,3.276336E3,1.9775087E2,2.6118658E1,1.6799042E1,1.0210335E0,2.2381771E1,9.87092E0,1.5690458E0,1.0338791E1,3.2801855E0,2.0147796E0,1.0102184E0,1.4591165E1,1.0152719E0,3.9742274E0,2.650145E0,1.8064266E0,3.2745295E3,1.7981116E2,1.7939713E1,1.9406239E1,6.71242E0,1.1194509E1,5.6045322E0,8.833786E0,1.0371343E0,1.3366661E0,9.002125E0,2.2355149E0,1.0446706E0,1.0027834E0,1.011996E0,1.479597E0,1.31115675E1,1.3039407E0,2.6702867E0,3.2383037E3,3.6225895E1,3.4762764E0,1.7633487E2,1.2048186E1,5.8915277E0,1.3197145E1,6.2090926E0,1.0413512E0,5.6710687E0,2.1797726E0,9.014736E0,3.1989639E0,2.4055681E0],"tree_param":{"num_deleted":"0","num_feature":"30","num_nodes":"69","size_leaf_vector":"1"}},{"base_weights":[9.4963884E-4,-9.6621335E-1,9.912388E-1,-6.384869E-2,-9.794333E-1,2.1874179E-1,3.0261523E-1,2.9245368E-1,-5.6736904E-1,-9.901847E-1,-8.061703E-1,2.831076E-1,-9.8552845E-2,6.895022E-2,9.046222E-1,-7.890063E-1,1.1253118E-1,2.7217006E-2,-9.908862E-1,-3.2038E-1,-8.900286E-1,-7.4013984E-1,1.9914318E-2,2.7409616E-1,-4.3471694E-1,1.1647763E-1,1.2775816E0,3.9317828E-2,-8.878959E-1,-1.5726817E-1,4.734362E-1,-7.3856866E-1,-9.934318E-1,-6.321456E-1,6.2464184E-1,-9.115455E-1,5.6992248E-2,-1.0233971E-2,-2.589546E-1,1.8289278E-1,-5.541526E-1,-4.3167938E-3,2.1905617E-1,-2.4557507E-1,1.2900105E-1,1.1417951E-1,-6.101377E-2,8.995031E-2,4.9548015E-1,-6.657801E-2,-2.795304E-1,-6.1659053E-2,2.642794E-1,-2.5073242E-1,1.9711627E-1,-2.6195434E-1,-2.9918867E-1,-2.4530126E-1,2.3045848E-1,5.830872E-1,-2.3002121E-1,-2.792538E-1,-9.764523E-2,3.232421E-1,-1.9930285E-1,-7.9908095E-2,2.4632046E-1,5.194135E-2,-2.4783368E-1],"categories":[],"categories_nodes":[],"categories_segments":[],"categories_sizes":[],"default_left":[0,0,0,0,0,0,0,0,0,0,0,0,0,0,0,0,0,0,0,0,0,0,0,0,0,0,0,0,0,0,0,0,0,0,0,0,0,0,0,0,0,0,0,0,0,0,0,0,0,0,0,0,0,0,0,0,0,0,0,0,0,0,0,0,0,0,0,0,0],"id":13,"left_children":[1,3,5,7,9,11,-1,13,15,17,19,-1,21,23,25,27,29,-1,31,33,35,37,39,41,43,45,47,-1,49,-1,51,53,55,57,59,61,63,-1,-1,65,67,-1,-1,-1,-1,-1,-1,-1,-1,-1,-1,-1,-1,-1,-1,-1,-1,-1,-1,-1,-1,-1,-1,-1,-1,-1,-1,-1,-1],"loss_changes":[5.006479E3,3.1484375E1,3.4651855E1,7.208162E0,4.0566406E0,1.353125E1,0E0,3.1730356E0,2.5912066E0,1.9470215E0,6.1373444E0,0E0,3.1721735E0,2.0208511E0,1.6859818E0,1.2671952E0,1.3875192E0,0E0,8.388672E-1,7.693013E0,2.7801132E0,5.353129E-1,3.4732952E0,1.8119702E0,2.2485151E0,3.3974367E-1,1.0175471E0,0E0,1.3066578E-1,0E0,1.2019131E0,4.3951054E0,2.536621E-1,5.596296E0,1.3690327E1,1.1784515E0,3.5980608E0,0E0,0E0,8.482244E0,1.7684026E0,0E0,0E0,0E0,0E0,0E0,0E0,0E0,0E0,0E0,0E0,0E0,0E0,0E0,0E0,0E0,0E0,0E0,0E0,0E0,0E0,0E0,0E0,0E0,0E0,0E0,0E0,0E0,0E0],"parents":[2147483647,0,0,1,1,2,2,3,3,4,4,5,5,7,7,8,8,9,9,10,10,12,12,13,13,14,14,15,15,16,16,18,18,19,19,20,20,21,21,22,22,23,23,24,24,25,25,26,26,28,28,30,30,31,31,32,32,33,33,34,34,35,35,36,36,39,39,40,40],"right_children":[2,4,6,8,10,12,-1,14,16,18,20,-1,22,24,26,28,30,-1,32,34,36,38,40,42,44,46,48,-1,50,-1,52,54,56,58,60,62,64,-1,-1,66,68,-1,-1,-1,-1,-1,-1,-1,-1,-1,-1,-1,-1,-1,-1,-1,-1,-1,-1,-1,-1,-1,-1,-1,-1,-1,-1,-1,-1],"split_conditions":[2.84439E5,-3.4781492E-1,2.86679E5,5.2590066E-1,2.6478857E-1,-9.697042E-2,3.0261523E-1,1.80013E5,6.76853E-1,-6.5990496E-1,3.1662133E-1,2.831076E-1,-8.940568E-1,1.2183437E0,-7.606708E-2,-1.7100975E-1,1.9041619E-1,2.7217006E-2,-1.6195633E0,1.1577548E0,9.689998E-1,-8.115343E-2,1.2672291E0,6.383667E-1,-2.4710155E-1,-1.3654542E-1,-1.4620657E-1,3.9317828E-2,6.170273E-1,-1.5726817E-1,-5.6098133E-1,-3.7706578E-1,8.646553E-2,7.3154825E-1,-2.0199327E-2,1.1228316E0,5.052354E-1,-1.0233971E-2,-2.589546E-1,1.1941589E-1,6.397283E-2,-4.3167938E-3,2.1905617E-1,-2.4557507E-1,1.2900105E-1,1.1417951E-1,-6.101377E-2,8.995031E-2,4.9548015E-1,-6.657801E-2,-2.795304E-1,-6.1659053E-2,2.642794E-1,-2.5073242E-1,1.9711627E-1,-2.6195434E-1,-2.9918867E-1,-2.4530126E-1,2.3045848E-1,5.830872E-1,-2.3002121E-1,-2.792538E-1,-9.764523E-2,3.232421E-1,-1.9930285E-1,-7.9908095E-2,2.4632046E-1,5.194135E-2,-2.4783368E-1],"split_indices":[0,14,0,7,4,12,0,0,4,12,14,0,4,28,21,10,11,0,20,18,4,5,1,19,26,8,23,0,7,0,3,1,14,20,2,17,16,0,0,1,14,0,0,0,0,0,0,0,0,0,0,0,0,0,0,0,0,0,0,0,0,0,0,0,0,0,0,0,0],"split_type":[0,0,0,0,0,0,0,0,0,0,0,0,0,0,0,0,0,0,0,0,0,0,0,0,0,0,0,0,0,0,0,0,0,0,0,0,0,0,0,0,0,0,0,0,0,0,0,0,0,0,0,0,0,0,0,0,0,0,0,0,0,0,0,0,0,0,0,0,0],"sum_hessian":[5.2252197E3,2.6434888E3,2.5817312E3,3.8253162E1,2.6052356E3,5.742136E1,2.5243098E3,2.2646893E1,1.560627E1,2.44858E3,1.5665535E2,1.688E1,4.0541363E1,1.7404955E1,5.241937E0,1.1648545E1,3.9577243E0,1.5047987E0,2.4470754E3,2.377095E1,1.328844E2,5.5011177E0,3.5040245E1,1.2691463E1,4.7134924E0,2.1052952E0,3.136642E0,1.09892E0,1.0549625E1,1.2680032E0,2.689721E0,2.7349339E1,2.419726E3,1.8123148E1,5.6478033E0,1.2996889E2,2.9155192E0,1.0059779E0,4.4951396E0,2.7822735E1,7.217508E0,8.3673935E0,4.32407E0,3.3013234E0,1.4121686E0,1.0491012E0,1.0561938E0,1.366373E0,1.7702689E0,1.0264727E0,9.523153E0,1.1947162E0,1.495005E0,2.5943502E1,1.405836E0,8.23926E1,2.3373335E3,1.6370394E1,1.7527531E0,2.695578E0,2.952225E0,1.2525558E2,4.7133064E0,1.0029343E0,1.9125848E0,1.6670155E1,1.1152582E1,2.0632403E0,5.154268E0],"tree_param":{"num_deleted":"0","num_feature":"30","num_nodes":"69","size_leaf_vector":"1"}},{"base_weights":[1.2944096E-3,-9.509877E-1,9.8470724E-1,-3.96553E-2,-9.6697676E-1,1.8305013E-1,3.0185986E-1,2.5949505E-1,-5.1083195E-1,-9.822154E-1,-7.6504314E-1,2.7528757E-1,-9.329111E-2,7.1417886E-1,-2.8454613E-2,-7.4637604E-1,6.6384785E-2,-6.725442E-1,-9.855585E-1,-2.1692091E-1,-8.719257E-1,1.6382052E-1,-4.3469384E-1,9.5081955E-1,-1.0311968E-1,1.9010365E-1,-2.5785437E-1,-1.6185382E-1,-2.6626393E-1,-1.4178206E-1,3.4302682E-1,2.046057E-1,-8.9680946E-1,-2.415982E-2,-9.861258E-1,9.60092E-1,-4.9696496E-1,-8.955227E-1,5.0538193E-2,4.775825E-1,-5.8700114E-1,-8.556334E-1,2.4893732E-1,3.438883E-1,5.6295893E-3,8.740147E-2,-1.606048E-1,6.98807E-2,-1.3599454E-1,2.0460911E-1,-7.321562E-2,-2.2414373E-1,4.7257853E-1,-4.290615E-3,-2.8460112E-1,-2.966193E-1,-2.0750397E-1,6.380485E-1,-6.3397564E-2,-2.745644E-1,-3.7782893E-2,-2.7514386E-1,-9.323065E-2,3.160477E-1,-1.9840921E-1,-1.834476E-1,1.8536156E-1,-2.6646295E-1,5.179123E-2,6.1534517E-2,-3.0159086E-1,-9.7651646E-2,1.9517522E-1],"categories":[],"categories_nodes":[],"categories_segments":[],"categories_sizes":[],"default_left":[0,0,0,0,0,0,0,0,0,0,0,0,0,0,0,0,0,0,0,0,0,0,0,0,0,0,0,0,0,0,0,0,0,0,0,0,0,0,0,0,0,0,0,0,0,0,0,0,0,0,0,0,0,0,0,0,0,0,0,0,0,0,0,0,0,0,0,0,0,0,0,0,0],"id":14,"left_children":[1,3,5,7,9,11,-1,13,15,17,19,-1,21,23,25,27,29,31,33,35,37,39,41,43,-1,-1,45,47,-1,-1,49,51,53,-1,55,57,59,61,63,65,67,69,71,-1,-1,-1,-1,-1,-1,-1,-1,-1,-1,-1,-1,-1,-1,-1,-1,-1,-1,-1,-1,-1,-1,-1,-1,-1,-1,-1,-1,-1,-1],"loss_changes":[3.665362E3,2.8935791E1,3.2990967E1,5.1121235E0,5.261841E0,1.0539109E1,0E0,2.9362736E0,1.9606268E0,1.2145996E0,8.108803E0,0E0,3.4355443E0,2.4983163E0,2.3806973E0,6.868229E-1,9.064489E-1,4.6129646E0,8.404541E-1,8.534188E0,2.6180954E0,5.601825E0,5.029807E0,1.3183241E0,0E0,0E0,1.9165312E0,4.7160113E-1,0E0,0E0,9.3830043E-1,8.220209E0,8.1565666E-1,0E0,6.899414E-1,7.3366165E0,3.051127E0,1.1728973E0,3.4775655E0,2.8961492E0,1.7793028E0,1.8867016E0,1.8622466E0,0E0,0E0,0E0,0E0,0E0,0E0,0E0,0E0,0E0,0E0,0E0,0E0,0E0,0E0,0E0,0E0,0E0,0E0,0E0,0E0,0E0,0E0,0E0,0E0,0E0,0E0,0E0,0E0,0E0,0E0],"parents":[2147483647,0,0,1,1,2,2,3,3,4,4,5,5,7,7,8,8,9,9,10,10,12,12,13,13,14,14,15,15,16,16,17,17,18,18,19,19,20,20,21,21,22,22,23,23,26,26,27,27,30,30,31,31,32,32,34,34,35,35,36,36,37,37,38,38,39,39,40,40,41,41,42,42],"right_children":[2,4,6,8,10,12,-1,14,16,18,20,-1,22,24,26,28,30,32,34,36,38,40,42,44,-1,-1,46,48,-1,-1,50,52,54,-1,56,58,60,62,64,66,68,70,72,-1,-1,-1,-1,-1,-1,-1,-1,-1,-1,-1,-1,-1,-1,-1,-1,-1,-1,-1,-1,-1,-1,-1,-1,-1,-1,-1,-1,-1,-1],"split_conditions":[2.84439E5,-3.4781492E-1,2.86679E5,5.2590066E-1,1.8642221E-1,-2.3127037E-1,3.0185986E-1,1.8312041E-1,5.946216E-1,-1.6195633E0,3.1662133E-1,2.7528757E-1,-2.719972E-1,9.6849316E-1,5.570359E-1,-6.2467523E-2,1.4945163E-1,3.323192E-1,-6.5990496E-1,3.563428E-1,9.689998E-1,1.1789092E0,1.1941589E-1,1.1129495E0,-1.0311968E-1,1.9010365E-1,-9.7069657E-1,1.6984724E0,-2.6626393E-1,-1.4178206E-1,5.130297E-1,-4.2127484E-1,-1.6086003E0,-2.415982E-2,1.5569469E0,5.3774345E-1,-6.125764E-1,1.1228316E0,3.5419565E-1,-1.2576835E0,6.021682E-1,-4.4457862E-1,-4.329994E-1,3.438883E-1,5.6295893E-3,8.740147E-2,-1.606048E-1,6.98807E-2,-1.3599454E-1,2.0460911E-1,-7.321562E-2,-2.2414373E-1,4.7257853E-1,-4.290615E-3,-2.8460112E-1,-2.966193E-1,-2.0750397E-1,6.380485E-1,-6.3397564E-2,-2.745644E-1,-3.7782893E-2,-2.7514386E-1,-9.323065E-2,3.160477E-1,-1.9840921E-1,-1.834476E-1,1.8536156E-1,-2.6646295E-1,5.179123E-2,6.1534517E-2,-3.0159086E-1,-9.7651646E-2,1.9517522E-1],"split_indices":[0,14,0,7,4,14,0,20,4,20,14,0,2,5,28,10,11,12,12,4,4,1,1,13,0,0,9,5,0,0,11,4,19,0,7,10,11,17,16,4,17,8,25,0,0,0,0,0,0,0,0,0,0,0,0,0,0,0,0,0,0,0,0,0,0,0,0,0,0,0,0,0,0],"split_type":[0,0,0,0,0,0,0,0,0,0,0,0,0,0,0,0,0,0,0,0,0,0,0,0,0,0,0,0,0,0,0,0,0,0,0,0,0,0,0,0,0,0,0,0,0,0,0,0,0,0,0,0,0,0,0,0,0,0,0,0,0,0,0,0,0,0,0,0,0,0,0,0,0],"sum_hessian":[3.911951E3,1.987449E3,1.9245018E3,3.432793E1,1.9531211E3,5.049677E1,1.874005E3,2.1271748E1,1.3056184E1,1.8124807E3,1.406403E2,1.3169295E1,3.7327473E1,7.6739917E0,1.3597755E1,9.064276E0,3.9919076E0,2.1517282E1,1.7909635E3,2.3443802E1,1.1719651E2,2.1588928E1,1.5738545E1,6.3539305E0,1.3200608E0,3.045364E0,1.0552392E1,2.1808562E0,6.8834195E0,1.1136919E0,2.8782158E0,4.3991036E0,1.7118177E1,1.2115339E0,1.789752E3,4.0391345E0,1.9404667E1,1.1430183E2,2.894682E0,1.5482741E1,6.106186E0,9.585043E0,6.153502E0,5.062369E0,1.2915616E0,3.5253856E0,7.0270066E0,1.0115265E0,1.1693299E0,1.7220802E0,1.1561356E0,2.864772E0,1.5343316E0,1.0209326E0,1.6097246E1,1.7717186E3,1.8033321E1,1.6149925E0,2.4241424E0,8.432289E0,1.0972379E1,1.0967766E2,4.624171E0,1.0024983E0,1.8921838E0,1.3835299E0,1.4099212E1,4.2512465E0,1.8549396E0,1.1393938E0,8.445649E0,2.6100836E0,3.5434184E0],"tree_param":{"num_deleted":"0","num_feature":"30","num_nodes":"73","size_leaf_vector":"1"}},{"base_weights":[1.5621582E-3,-9.3343383E-1,9.7810096E-1,-3.1321753E-2,-9.5235854E-1,1.4951392E-1,3.012777E-1,1.2142564E-1,-2.349913E-1,-9.709304E-1,-6.896431E-1,8.286703E-1,-1.2053819E-1,6.5338975E-1,-1.6013434E-2,-1.422308E-1,-9.7293186E-1,-8.5556257E-1,-2.610558E-1,5.3704693E-3,2.7496994E-1,1.1598988E-1,-4.555694E-1,1.0520834E-1,1.0071791E0,1.4958403E-1,-2.0750475E-1,2.9027975E-1,-1.8354663E-1,-6.799609E-1,-9.782454E-1,-5.603411E-1,-9.51215E-1,4.4713494E-1,-5.603033E-1,3.5007897E-1,-5.671782E-1,-7.050391E-1,1.224805E-1,-7.050108E-2,1.3139905E-1,3.7994948E-1,7.48673E-2,2.939312E-1,-1.1467242E-2,-2.6131347E-2,1.5669067E-1,4.488602E-1,-2.4540623E-1,-2.3157687E-1,-2.955022E-1,-2.5647187E-1,-4.605593E-3,-1.7334287E-3,-2.9079783E-1,3.009651E-1,-1.7529604E-1,-2.399048E-1,1.394651E-1,1.8895002E-1,-1.293059E-1,-2.3888768E-1,1.9729434E-2,-2.7085185E-1,-5.0949465E-2,-1.8804173E-1,1.6183026E-1],"categories":[],"categories_nodes":[],"categories_segments":[],"categories_sizes":[],"default_left":[0,0,0,0,0,0,0,0,0,0,0,0,0,0,0,0,0,0,0,0,0,0,0,0,0,0,0,0,0,0,0,0,0,0,0,0,0,0,0,0,0,0,0,0,0,0,0,0,0,0,0,0,0,0,0,0,0,0,0,0,0,0,0,0,0,0,0],"id":15,"left_children":[1,3,5,7,9,11,-1,13,-1,15,17,19,21,23,25,27,29,31,33,-1,-1,35,37,39,41,43,-1,45,-1,47,49,51,53,55,57,59,61,63,65,-1,-1,-1,-1,-1,-1,-1,-1,-1,-1,-1,-1,-1,-1,-1,-1,-1,-1,-1,-1,-1,-1,-1,-1,-1,-1,-1,-1],"loss_changes":[2.6799495E3,2.5569458E1,3.0966797E1,3.7527895E0,6.4958496E0,8.373627E0,0E0,2.0088701E0,0E0,2.1326904E0,6.917362E0,9.072542E-1,2.6797872E0,9.8706174E-1,2.643054E0,1.0854893E0,1.4608154E0,1.4988289E0,6.494689E0,0E0,0E0,3.4335594E0,2.093898E0,4.7963858E-1,3.339646E-1,3.0079207E0,0E0,3.0862933E-1,0E0,9.518532E0,1.1077881E0,3.2042036E0,9.003868E-1,5.925094E0,5.563617E0,3.6987786E0,8.563533E-1,8.918185E-1,1.9154619E0,0E0,0E0,0E0,0E0,0E0,0E0,0E0,0E0,0E0,0E0,0E0,0E0,0E0,0E0,0E0,0E0,0E0,0E0,0E0,0E0,0E0,0E0,0E0,0E0,0E0,0E0,0E0,0E0],"parents":[2147483647,0,0,1,1,2,2,3,3,4,4,5,5,7,7,9,9,10,10,11,11,12,12,13,13,14,14,15,15,16,16,17,17,18,18,21,21,22,22,23,23,24,24,25,25,27,27,29,29,30,30,31,31,32,32,33,33,34,34,35,35,36,36,37,37,38,38],"right_children":[2,4,6,8,10,12,-1,14,-1,16,18,20,22,24,26,28,30,32,34,-1,-1,36,38,40,42,44,-1,46,-1,48,50,52,54,56,58,60,62,64,66,-1,-1,-1,-1,-1,-1,-1,-1,-1,-1,-1,-1,-1,-1,-1,-1,-1,-1,-1,-1,-1,-1,-1,-1,-1,-1,-1,-1],"split_conditions":[2.84439E5,-3.4781492E-1,2.86679E5,6.210124E-1,2.6478857E-1,1.3064155E-1,3.012777E-1,-2.9569635E-1,-2.349913E-1,-2.4993214E-1,-3.5722783E-1,-7.9018945E-1,1.2723498E-1,-3.481525E-2,9.910145E-3,9.912918E-2,-1.2236675E0,-1.7679289E-1,-1.781048E-1,5.3704693E-3,2.7496994E-1,-1.2805715E-1,3.5861307E-1,3.5055336E-1,1.4656587E-1,-3.7022495E-1,-2.0750475E-1,-5.204843E-2,-1.8354663E-1,-1.5111557E0,8.646553E-2,2.929312E-1,-2.3985636E0,-2.0199327E-2,4.9230233E-1,8.551935E-1,-1.1829945E-1,2.7824008E-1,-2.0680891E-1,-7.050108E-2,1.3139905E-1,3.7994948E-1,7.48673E-2,2.939312E-1,-1.1467242E-2,-2.6131347E-2,1.5669067E-1,4.488602E-1,-2.4540623E-1,-2.3157687E-1,-2.955022E-1,-2.5647187E-1,-4.605593E-3,-1.7334287E-3,-2.9079783E-1,3.009651E-1,-1.7529604E-1,-2.399048E-1,1.394651E-1,1.8895002E-1,-1.293059E-1,-2.3888768E-1,1.9729434E-2,-2.7085185E-1,-5.0949465E-2,-1.8804173E-1,1.6183026E-1],"split_indices":[0,14,0,10,4,12,0,20,0,17,11,11,13,21,10,28,20,8,8,0,0,8,25,11,13,25,0,4,0,13,14,1,6,2,25,14,4,24,8,0,0,0,0,0,0,0,0,0,0,0,0,0,0,0,0,0,0,0,0,0,0,0,0,0,0,0,0],"split_type":[0,0,0,0,0,0,0,0,0,0,0,0,0,0,0,0,0,0,0,0,0,0,0,0,0,0,0,0,0,0,0,0,0,0,0,0,0,0,0,0,0,0,0,0,0,0,0,0,0,0,0,0,0,0,0,0,0,0,0,0,0,0,0,0,0,0,0],"sum_hessian":[2.9331301E3,1.4984601E3,1.4346702E3,3.0843708E1,1.4676163E3,4.411121E1,1.390559E3,2.6333258E1,4.5104504E0,1.3682E3,9.9416405E1,1.1961236E1,3.2149975E1,4.635873E0,2.1697386E1,3.4700906E0,1.3647299E3,7.095231E1,2.8464092E1,1.2876256E0,1.067361E1,1.9228601E1,1.2921371E1,2.3272595E0,2.3086133E0,1.8051756E1,3.6456306E0,2.0051348E0,1.4649556E0,2.6608162E1,1.3381217E3,1.904132E1,5.1910988E1,8.308124E0,2.015597E1,1.4684492E1,4.5441093E0,8.872549E0,4.0488224E0,1.2960914E0,1.0311681E0,1.2195189E0,1.0890944E0,2.552375E0,1.549938E1,1.0012268E0,1.0039082E0,1.0004992E0,2.5607662E1,4.6117798E1,1.2920039E3,1.199136E1,7.049961E0,1.0005192E0,5.091047E1,5.415744E0,2.89238E0,1.6518818E1,3.6371517E0,1.0954677E1,3.729815E0,3.1469064E0,1.3972027E0,5.976775E0,2.8957744E0,1.2675946E0,2.7812278E0],"tree_param":{"num_deleted":"0","num_feature":"30","num_nodes":"67","size_leaf_vector":"1"}},{"base_weights":[1.7635957E-3,-9.1072494E-1,9.70319E-1,-3.6577773E-1,-9.5210856E-1,1.174713E-1,3.0081403E-1,-6.7481375E-1,8.583977E-2,-9.69502E-1,-7.0052993E-1,2.5711823E-1,-8.95177E-2,-7.543528E-1,3.527616E-1,-3.4095818E-1,4.3350857E-1,-6.0547996E-1,-9.7655034E-1,2.2867751E-1,-8.187933E-1,-2.734076E-1,2.8935713E-1,-2.961432E-2,-8.3042943E-1,-1.9624808E-1,4.2488334E-1,-7.353126E-1,1.7982824E-1,-1.8184184E-1,9.754745E-1,3.1556886E-1,-7.771886E-1,-9.79408E-1,-6.281798E-1,1.494002E0,-5.1811916E-1,-9.017448E-1,-7.353861E-2,-7.4581915E-1,-3.777772E-2,6.447665E-1,-3.119887E-1,2.0467566E-1,-1.2968273E-1,-2.6207355E-1,3.346395E-2,2.8805096E-2,-2.5505847E-1,2.2341458E-1,-1.264884E-1,-1.344353E-1,1.1659811E-1,3.615705E-1,-5.6042984E-2,-2.7479658E-1,3.149786E-2,-1.1620408E-1,-2.9411963E-1,2.049221E-1,-2.6881468E-1,-1.6664696E-1,8.441268E-1,1.5751173E-1,-2.4601363E-1,-2.3871937E-3,-2.8018695E-1,3.4321374E-1,-2.4439152E-1,5.07599E-2,-2.8400427E-1,2.1418703E-1,-1.06125765E-1,2.4911997E-1,-1.8224545E-2,-1.9286633E-1,1.2756202E-1],"categories":[],"categories_nodes":[],"categories_segments":[],"categories_sizes":[],"default_left":[0,0,0,0,0,0,0,0,0,0,0,0,0,0,0,0,0,0,0,0,0,0,0,0,0,0,0,0,0,0,0,0,0,0,0,0,0,0,0,0,0,0,0,0,0,0,0,0,0,0,0,0,0,0,0,0,0,0,0,0,0,0,0,0,0,0,0,0,0,0,0,0,0,0,0,0,0],"id":16,"left_children":[1,3,5,7,9,11,-1,13,15,17,19,-1,21,23,25,27,29,31,33,35,37,39,41,43,45,-1,-1,47,49,51,53,-1,55,57,59,61,63,65,67,69,71,73,75,-1,-1,-1,-1,-1,-1,-1,-1,-1,-1,-1,-1,-1,-1,-1,-1,-1,-1,-1,-1,-1,-1,-1,-1,-1,-1,-1,-1,-1,-1,-1,-1,-1,-1],"loss_changes":[1.9528237E3,2.5309692E1,2.9495117E1,1.1491888E1,3.9451294E0,6.2547398E0,0E0,4.250862E0,5.218313E0,1.9381714E0,8.093224E0,0E0,2.3390377E0,2.4879189E0,5.4070344E0,3.3976378E0,6.604458E0,6.895619E0,3.4594727E-1,9.188201E0,3.892601E0,2.4599204E0,2.5702875E0,1.8330523E0,1.7721825E0,0E0,0E0,9.6454906E-1,2.9148374E0,1.6731775E0,3.0034943E0,0E0,2.5362654E0,1.809082E-1,4.350773E0,1.1198575E1,2.4280267E0,1.6490669E0,7.7021885E0,1.517518E0,4.0451446E0,1.0056276E0,1.4422321E0,0E0,0E0,0E0,0E0,0E0,0E0,0E0,0E0,0E0,0E0,0E0,0E0,0E0,0E0,0E0,0E0,0E0,0E0,0E0,0E0,0E0,0E0,0E0,0E0,0E0,0E0,0E0,0E0,0E0,0E0,0E0,0E0,0E0,0E0],"parents":[2147483647,0,0,1,1,2,2,3,3,4,4,5,5,7,7,8,8,9,9,10,10,12,12,13,13,14,14,15,15,16,16,17,17,18,18,19,19,20,20,21,21,22,22,23,23,24,24,27,27,28,28,29,29,30,30,32,32,33,33,34,34,35,35,36,36,37,37,38,38,39,39,40,40,41,41,42,42],"right_children":[2,4,6,8,10,12,-1,14,16,18,20,-1,22,24,26,28,30,32,34,36,38,40,42,44,46,-1,-1,48,50,52,54,-1,56,58,60,62,64,66,68,70,72,74,76,-1,-1,-1,-1,-1,-1,-1,-1,-1,-1,-1,-1,-1,-1,-1,-1,-1,-1,-1,-1,-1,-1,-1,-1,-1,-1,-1,-1,-1,-1,-1,-1,-1,-1],"split_conditions":[2.84439E5,8.646553E-2,2.86679E5,1.0403769E-1,2.6478857E-1,-2.3127037E-1,3.0081403E-1,4.4424924E-1,-1.2497241E-1,-1.2236675E0,-2.5763553E-1,2.5711823E-1,2.320535E-1,-8.750507E-2,-1.2144381E-1,7.881344E-2,-8.5393286E-1,-1.5400043E0,1.5569469E0,4.628207E-1,8.669451E-1,-6.9092274E-1,4.4536054E-1,-1.4386933E-1,2.75573E5,-1.9624808E-1,4.2488334E-1,2.3533012E-1,1.8401991E-1,4.967007E-1,1.2148036E0,3.1556886E-1,-3.7706578E-1,-2.6552663E0,-1.3355784E0,1.5394837E-1,3.4632856E-1,-1.908486E0,7.876618E-1,-6.0725766E-1,-3.5618308E-1,1.709598E4,-3.7684673E-1,2.0467566E-1,-1.2968273E-1,-2.6207355E-1,3.346395E-2,2.8805096E-2,-2.5505847E-1,2.2341458E-1,-1.264884E-1,-1.344353E-1,1.1659811E-1,3.615705E-1,-5.6042984E-2,-2.7479658E-1,3.149786E-2,-1.1620408E-1,-2.9411963E-1,2.049221E-1,-2.6881468E-1,-1.6664696E-1,8.441268E-1,1.5751173E-1,-2.4601363E-1,-2.3871937E-3,-2.8018695E-1,3.4321374E-1,-2.4439152E-1,5.07599E-2,-2.8400427E-1,2.1418703E-1,-1.06125765E-1,2.4911997E-1,-1.8224545E-2,-1.9286633E-1,1.2756202E-1],"split_indices":[0,14,0,4,4,14,0,23,21,20,21,0,15,10,21,11,6,13,7,4,7,26,22,28,0,0,0,10,13,21,17,0,1,19,26,25,16,25,14,2,26,29,11,0,0,0,0,0,0,0,0,0,0,0,0,0,0,0,0,0,0,0,0,0,0,0,0,0,0,0,0,0,0,0,0,0,0],"split_type":[0,0,0,0,0,0,0,0,0,0,0,0,0,0,0,0,0,0,0,0,0,0,0,0,0,0,0,0,0,0,0,0,0,0,0,0,0,0,0,0,0,0,0,0,0,0,0,0,0,0,0,0,0,0,0,0,0,0,0,0,0,0,0,0,0,0,0,0,0,0,0,0,0,0,0,0,0],"sum_hessian":[2.2075874E3,1.1367244E3,1.070863E3,8.09251E1,1.0557992E3,3.9356285E1,1.0315067E3,4.7753674E1,3.3171432E1,9.8485547E2,7.094376E1,7.9193077E0,3.1436977E1,4.4569664E1,3.184008E0,1.4899778E1,1.8271652E1,2.0357693E1,9.644978E2,7.904406E0,6.303936E1,2.1351988E1,1.0084989E1,4.366051E0,4.0203613E1,1.8332353E0,1.3507727E0,8.244716E0,6.6550627E0,8.8677025E0,9.403951E0,1.4298979E0,1.8927795E1,9.5485364E2,9.644175E0,2.5623598E0,5.3420463E0,5.653651E1,6.5028467E0,6.3851876E0,1.4966801E1,6.2932973E0,3.791691E0,1.3265254E0,3.0395257E0,3.85121E1,1.6915106E0,1.0209519E0,7.223764E0,3.3090343E0,3.346028E0,6.192118E0,2.6755843E0,7.820951E0,1.5829995E0,1.6321495E1,2.6063E0,2.2498512E0,9.5260376E2,1.373023E0,8.271152E0,1.2305273E0,1.3318326E0,1.0332371E0,4.308809E0,2.0100489E0,5.4526463E1,2.2547343E0,4.2481127E0,1.1777263E0,5.2074614E0,4.056488E0,1.0910312E1,4.8422136E0,1.4510839E0,2.7053084E0,1.0863825E0],"tree_param":{"num_deleted":"0","num_feature":"30","num_nodes":"77","size_leaf_vector":"1"}},{"base_weights":[2.0199185E-3,-8.8469946E-1,9.614421E-1,-3.1281173E-1,-9.3438596E-1,1.0294814E-1,3.0042565E-1,-6.056159E-1,6.585551E-2,-9.616966E-1,-6.87607E-1,2.550041E-1,-7.6246805E-2,3.4780923E-1,-6.957713E-1,-3.904516E-1,3.0090114E-1,-9.668139E-1,-5.068074E-1,-2.4170135E-1,-8.806873E-1,-3.9530617E-1,1.5025537E-1,3.2311147E-1,-9.763081E-2,-4.183161E-1,-9.333493E-1,3.7376845E-1,-7.297852E-1,7.8938127E-1,-6.0066834E-2,-6.5927533E-3,-9.681746E-1,-2.5938264E-1,2.9042122E-1,3.782105E-1,-6.0386944E-1,-1.8525067E-1,-9.27602E-1,-8.234787E-1,9.016571E-2,4.590023E-1,-2.820253E-1,-1.9178773E-1,2.6336223E-1,-7.663766E-2,-2.870737E-1,1.8700498E-1,-3.0327506E-2,-2.4659382E-1,-3.2184996E-2,3.2767537E-1,-3.3888936E-2,4.3127704E-2,-1.5168893E-1,-2.9085281E-1,-8.075952E-2,4.4905707E-1,-1.9600427E-1,3.41277E-1,-1.0316976E-1,-2.266127E-1,2.613497E-1,-2.1640189E-1,2.1400286E-1,-2.8352493E-1,-1.8304858E-3,-3.0431723E-2,-2.7946508E-1,-1.1364091E-1,1.759286E-1,2.0686811E-1,-9.1211356E-2,9.1683246E-2,-2.1524568E-1],"categories":[],"categories_nodes":[],"categories_segments":[],"categories_sizes":[],"default_left":[0,0,0,0,0,0,0,0,0,0,0,0,0,0,0,0,0,0,0,0,0,0,0,0,0,0,0,0,0,0,0,0,0,0,0,0,0,0,0,0,0,0,0,0,0,0,0,0,0,0,0,0,0,0,0,0,0,0,0,0,0,0,0,0,0,0,0,0,0,0,0,0,0,0,0],"id":17,"left_children":[1,3,5,7,9,11,-1,13,15,17,19,-1,21,23,25,27,29,31,33,35,37,39,41,-1,-1,43,45,47,49,51,53,-1,55,-1,57,59,61,63,65,67,69,71,73,-1,-1,-1,-1,-1,-1,-1,-1,-1,-1,-1,-1,-1,-1,-1,-1,-1,-1,-1,-1,-1,-1,-1,-1,-1,-1,-1,-1,-1,-1,-1,-1],"loss_changes":[1.4201006E3,2.4357666E1,2.7413147E1,7.89518E0,4.7147217E0,4.98966E0,0E0,3.6847057E0,3.5277197E0,1.1758423E0,6.9320107E0,0E0,2.269978E0,2.376564E0,2.0435638E0,3.1889563E0,3.8473887E0,8.8720703E-1,3.1215756E0,6.1677237E0,1.7052574E0,2.7713175E0,2.6137424E0,0E0,0E0,5.959011E0,6.0310364E-2,5.5119956E-1,3.781824E-1,2.6455045E0,1.2825787E0,0E0,3.9727783E-1,0E0,5.379613E0,6.0780144E0,4.4758797E0,2.8680377E0,8.5843277E-1,4.511881E-1,1.8470671E0,2.1868708E0,2.3623123E0,0E0,0E0,0E0,0E0,0E0,0E0,0E0,0E0,0E0,0E0,0E0,0E0,0E0,0E0,0E0,0E0,0E0,0E0,0E0,0E0,0E0,0E0,0E0,0E0,0E0,0E0,0E0,0E0,0E0,0E0,0E0,0E0],"parents":[2147483647,0,0,1,1,2,2,3,3,4,4,5,5,7,7,8,8,9,9,10,10,12,12,13,13,14,14,15,15,16,16,17,17,18,18,19,19,20,20,21,21,22,22,25,25,26,26,27,27,28,28,29,29,30,30,32,32,34,34,35,35,36,36,37,37,38,38,39,39,40,40,41,41,42,42],"right_children":[2,4,6,8,10,12,-1,14,16,18,20,-1,22,24,26,28,30,32,34,36,38,40,42,-1,-1,44,46,48,50,52,54,-1,56,-1,58,60,62,64,66,68,70,72,74,-1,-1,-1,-1,-1,-1,-1,-1,-1,-1,-1,-1,-1,-1,-1,-1,-1,-1,-1,-1,-1,-1,-1,-1,-1,-1,-1,-1,-1,-1,-1,-1],"split_conditions":[2.84439E5,8.646553E-2,2.86679E5,1.0403769E-1,7.4851154E-3,-1.23803906E-1,3.0042565E-1,-1.9098701E-2,-1.7144945E-1,1.5569469E0,-1.7679289E-1,2.550041E-1,-2.6952094E-1,-4.1858622E-1,-2.6775232E-1,9.910145E-3,-5.519216E-2,-8.9733505E-1,2.2068034E-1,3.1538862E-1,-1.9889252E0,2.6639724E-1,-1.0516445E-1,3.2311147E-1,-9.763081E-2,1.0807973E0,-8.096036E-2,2.999199E0,7.065184E-1,1.081819E0,1.2183437E0,-6.5927533E-3,1.8538891E0,-2.5938264E-1,-6.784135E-1,8.629613E-1,1.1228316E0,4.7802043E-1,8.789972E-1,4.4421405E-2,-7.650909E-3,1.5521034E0,-3.888149E-1,-1.9178773E-1,2.6336223E-1,-7.663766E-2,-2.870737E-1,1.8700498E-1,-3.0327506E-2,-2.4659382E-1,-3.2184996E-2,3.2767537E-1,-3.3888936E-2,4.3127704E-2,-1.5168893E-1,-2.9085281E-1,-8.075952E-2,4.4905707E-1,-1.9600427E-1,3.41277E-1,-1.0316976E-1,-2.266127E-1,2.613497E-1,-2.1640189E-1,2.1400286E-1,-2.8352493E-1,-1.8304858E-3,-3.0431723E-2,-2.7946508E-1,-1.1364091E-1,1.759286E-1,2.0686811E-1,-9.1211356E-2,9.1683246E-2,-2.1524568E-1],"split_indices":[0,14,0,4,4,12,0,7,21,7,8,0,27,1,26,10,8,7,15,12,19,3,27,0,0,1,9,16,12,5,28,0,22,0,26,14,17,17,28,5,1,1,2,0,0,0,0,0,0,0,0,0,0,0,0,0,0,0,0,0,0,0,0,0,0,0,0,0,0,0,0,0,0,0,0],"split_type":[0,0,0,0,0,0,0,0,0,0,0,0,0,0,0,0,0,0,0,0,0,0,0,0,0,0,0,0,0,0,0,0,0,0,0,0,0,0,0,0,0,0,0,0,0,0,0,0,0,0,0,0,0,0,0,0,0,0,0,0,0,0,0,0,0,0,0,0,0,0,0,0,0,0,0],"sum_hessian":[1.667257E3,8.66498E2,8.007589E2,6.984799E1,7.9665E2,3.5788197E1,7.649707E2,3.9051846E1,3.0796148E1,7.146623E2,8.198769E1,6.199385E0,2.9588812E1,3.1268108E0,3.5925037E1,1.0245268E1,2.0550879E1,7.055993E2,9.063034E0,2.5454384E1,5.6533314E1,1.1975049E1,1.7613764E1,1.2130829E0,1.9137278E0,1.7845245E1,1.807979E1,3.1191316E0,7.126137E0,8.228633E0,1.2322247E1,1.0393451E0,7.0455994E2,6.197181E0,2.8658528E0,9.3706455E0,1.6083738E1,3.8855054E0,5.2647808E1,5.9930787E0,5.9819703E0,1.0238982E1,7.3747816E0,1.567905E1,2.1661954E0,1.0051063E0,1.7074684E1,1.8395708E0,1.2795608E0,5.9277735E0,1.1983632E0,6.003209E0,2.2254233E0,8.919373E0,3.4028742E0,7.0283075E2,1.7291772E0,1.0006557E0,1.8651971E0,4.2870064E0,5.0836387E0,1.5028047E1,1.0556918E0,2.5571818E0,1.3283236E0,5.1642548E1,1.0052603E0,1.0326234E0,4.9604554E0,3.1972532E0,2.784717E0,7.937045E0,2.3019366E0,3.2658443E0,4.1089373E0],"tree_param":{"num_deleted":"0","num_feature":"30","num_nodes":"75","size_leaf_vector":"1"}},{"base_weights":[1.95327E-3,-8.510693E-1,9.5088744E-1,-2.6099455E-1,-9.1213644E-1,8.176215E-2,3.0007708E-1,-4.5502546E-1,1.7928818E-1,-9.4719005E-1,-6.2285745E-1,-2.043703E-1,4.807381E-1,2.7277458E-1,-5.569154E-1,-1.24930024E-1,9.5427746E-1,-5.026588E-1,-9.5649236E-1,4.5447877E-1,-7.0577574E-1,7.263403E-2,-5.0321466E-1,7.704647E-1,-1.397363E-1,8.6201894E-1,-2.5108445E-1,-8.310896E-1,-1.6174543E-1,2.2572903E-1,-4.0665197E-1,6.0326755E-1,1.8454479E-1,-8.524345E-1,6.3263655E-1,-9.61696E-1,-4.5497292E-1,5.532466E-1,-2.819883E-1,2.4800533E-1,-7.9892814E-1,-1.8931383E-1,3.2729164E-1,2.974855E-2,-6.5279037E-1,2.5422677E-1,2.7717944E-2,2.825043E-1,-5.060445E-1,3.273897E-1,6.284964E-2,-1.727145E-1,6.0799915E-2,-2.6978016E-1,-1.2125651E-1,6.42155E-2,-2.1830605E-1,-2.3035884E-2,2.7042434E-1,-1.928331E-1,7.568765E-2,1.7320926E-1,-1.5969609E-1,-2.694567E-1,-6.316798E-2,-1.8821223E-1,5.977238E-1,-2.895859E-1,-1.0676147E-1,1.7099509E-1,-2.4859077E-1,-1.9501616E-1,1.4689216E-1,3.4733918E-1,-1.5766555E-1,-2.7482834E-1,-1.0543251E-1,2.0260936E-1,-4.2578097E-2,-2.559767E-1,-4.7904488E-2,1.6426185E-1,-4.206899E-2,-2.0392454E-1,-2.3171732E-2],"categories":[],"categories_nodes":[],"categories_segments":[],"categories_sizes":[],"default_left":[0,0,0,0,0,0,0,0,0,0,0,0,0,0,0,0,0,0,0,0,0,0,0,0,0,0,0,0,0,0,0,0,0,0,0,0,0,0,0,0,0,0,0,0,0,0,0,0,0,0,0,0,0,0,0,0,0,0,0,0,0,0,0,0,0,0,0,0,0,0,0,0,0,0,0,0,0,0,0,0,0,0,0,0,0],"id":18,"left_children":[1,3,5,7,9,11,-1,13,15,17,19,21,23,25,27,29,31,33,35,37,39,41,43,45,47,49,51,53,55,57,59,-1,61,63,65,67,69,-1,71,73,75,-1,77,-1,79,-1,-1,81,83,-1,-1,-1,-1,-1,-1,-1,-1,-1,-1,-1,-1,-1,-1,-1,-1,-1,-1,-1,-1,-1,-1,-1,-1,-1,-1,-1,-1,-1,-1,-1,-1,-1,-1,-1,-1],"loss_changes":[1.027095E3,2.3839966E1,2.5691467E1,5.554793E0,5.546234E0,3.9083114E0,0E0,3.4705677E0,4.9088287E0,1.7431335E0,6.424082E0,1.7035685E0,2.667041E0,2.1200984E0,4.1544933E0,1.6203177E0,4.3805833E0,5.753639E0,9.343872E-1,6.1398125E0,5.869385E0,2.2358701E0,9.4889927E-1,4.3616676E-1,9.748234E-1,2.3935032E-1,7.1164274E-1,3.096981E-1,3.8684058E0,1.6096246E0,1.552652E0,0E0,1.569215E0,1.1820269E-1,7.5323524E0,7.861328E-1,3.2666855E0,0E0,1.583947E0,5.1426444E0,2.7394028E0,0E0,1.5614715E0,0E0,6.5386486E-1,0E0,0E0,4.286022E-1,1.8869144E-1,0E0,0E0,0E0,0E0,0E0,0E0,0E0,0E0,0E0,0E0,0E0,0E0,0E0,0E0,0E0,0E0,0E0,0E0,0E0,0E0,0E0,0E0,0E0,0E0,0E0,0E0,0E0,0E0,0E0,0E0,0E0,0E0,0E0,0E0,0E0,0E0],"parents":[2147483647,0,0,1,1,2,2,3,3,4,4,5,5,7,7,8,8,9,9,10,10,11,11,12,12,13,13,14,14,15,15,16,16,17,17,18,18,19,19,20,20,21,21,22,22,23,23,24,24,25,25,26,26,27,27,28,28,29,29,30,30,32,32,33,33,34,34,35,35,36,36,38,38,39,39,40,40,42,42,44,44,47,47,48,48],"right_children":[2,4,6,8,10,12,-1,14,16,18,20,22,24,26,28,30,32,34,36,38,40,42,44,46,48,50,52,54,56,58,60,-1,62,64,66,68,70,-1,72,74,76,-1,78,-1,80,-1,-1,82,84,-1,-1,-1,-1,-1,-1,-1,-1,-1,-1,-1,-1,-1,-1,-1,-1,-1,-1,-1,-1,-1,-1,-1,-1,-1,-1,-1,-1,-1,-1,-1,-1,-1,-1,-1,-1],"split_conditions":[2.84439E5,8.646553E-2,2.86679E5,9.727131E-3,7.4851154E-3,-3.7684673E-1,3.0007708E-1,-8.750507E-2,9.919162E-2,-1.2236675E0,-5.358439E-1,-1.844862E-1,5.8044994E-1,-2.305369E-1,8.492641E-1,-3.4071E-1,-1.0890503E-2,-4.1858622E-1,1.5569469E0,3.4913313E-1,-3.0742863E-1,7.329041E-2,1.9819511E-1,1.216875E0,6.423881E-1,9.51071E3,-4.1616482E-1,3.3732817E-2,1.6661725E0,-3.944866E-1,1.3312785E-1,6.0326755E-1,-2.3127037E-1,-1.444303E-1,-8.522878E-1,1.2129815E0,-1.3355784E0,5.532466E-1,-2.0763206E-1,4.3585005E-1,7.049481E-1,-1.8931383E-1,-3.0973706E-1,2.974855E-2,2.929312E-1,2.5422677E-1,2.7717944E-2,5.4470295E-1,4.935695E-2,3.273897E-1,6.284964E-2,-1.727145E-1,6.0799915E-2,-2.6978016E-1,-1.2125651E-1,6.42155E-2,-2.1830605E-1,-2.3035884E-2,2.7042434E-1,-1.928331E-1,7.568765E-2,1.7320926E-1,-1.5969609E-1,-2.694567E-1,-6.316798E-2,-1.8821223E-1,5.977238E-1,-2.895859E-1,-1.0676147E-1,1.7099509E-1,-2.4859077E-1,-1.9501616E-1,1.4689216E-1,3.4733918E-1,-1.5766555E-1,-2.7482834E-1,-1.0543251E-1,2.0260936E-1,-4.2578097E-2,-2.559767E-1,-4.7904488E-2,1.6426185E-1,-4.206899E-2,-2.0392454E-1,-2.3171732E-2],"split_indices":[0,14,0,21,4,11,0,10,23,20,8,8,7,8,1,23,28,1,7,14,12,18,7,1,5,29,23,14,1,23,26,0,14,4,4,23,26,0,1,6,5,0,2,0,1,0,0,12,1,0,0,0,0,0,0,0,0,0,0,0,0,0,0,0,0,0,0,0,0,0,0,0,0,0,0,0,0,0,0,0,0,0,0,0,0],"split_type":[0,0,0,0,0,0,0,0,0,0,0,0,0,0,0,0,0,0,0,0,0,0,0,0,0,0,0,0,0,0,0,0,0,0,0,0,0,0,0,0,0,0,0,0,0,0,0,0,0,0,0,0,0,0,0,0,0,0,0,0,0,0,0,0,0,0,0,0,0,0,0,0,0,0,0,0,0,0,0,0,0,0,0,0,0],"sum_hessian":[1.2668611E3,6.672001E2,5.99661E2,6.3067783E1,6.041323E2,3.2374775E1,5.6728625E2,4.3752666E1,1.9315117E1,5.368097E2,6.732263E1,1.9137646E1,1.3237128E1,5.1670756E0,3.858559E1,1.4472719E1,4.8423967E0,1.2131135E1,5.246785E2,4.4910126E0,6.283162E1,1.0324566E1,8.81308E0,8.858822E0,4.378306E0,2.1279778E0,3.039098E0,2.2129044E1,1.6456545E1,6.5360527E0,7.9366665E0,1.3612922E0,3.4811046E0,9.464383E0,2.666752E0,5.1838226E2,6.296246E0,1.0346408E0,3.456372E0,5.4426208E0,5.7389E1,2.3507798E0,7.9737864E0,1.8201112E0,6.992968E0,7.7315726E0,1.1272495E0,2.140151E0,2.2381551E0,1.0770805E0,1.0508974E0,1.6149269E0,1.4241711E0,1.8127518E1,4.001526E0,1.0263285E1,6.193261E0,5.1269794E0,1.4090737E0,5.8609853E0,2.0756812E0,2.374534E0,1.106571E0,8.461877E0,1.0025061E0,1.6637185E0,1.0030338E0,5.147385E2,3.6437564E0,1.5417726E0,4.754473E0,2.4468062E0,1.009566E0,2.2728133E0,3.1698074E0,4.465079E1,1.2738207E1,4.325633E0,3.648153E0,4.4525127E0,2.5404553E0,1.13397E0,1.0061809E0,1.1763967E0,1.0617584E0],"tree_param":{"num_deleted":"0","num_feature":"30","num_nodes":"85","size_leaf_vector":"1"}},{"base_weights":[2.53366E-3,-7.632587E-1,2.9973638E-1,-1.2192192E-1,-8.4983456E-1,-6.799478E-1,6.659999E-2,-8.846048E-1,-9.312259E-2,1.5352036E-2,-8.224939E-1,-2.4114074E-1,3.6391988E-1,-9.288246E-1,-5.527322E-1,3.944622E-2,-5.974369E-1,2.5160798E-1,-1.9229591E-1,-2.7014726E-1,-2.7715048E-2,-4.042202E-2,-2.562824E-1,1.2501594E0,5.8967408E-2,-4.3611825E-1,-9.4095314E-1,-1.1182968E-1,-8.0552465E-1,-1.7854579E-1,5.502241E-1,-2.2045735E-1,-2.3392748E-2,1.011219E-1,-1.0911698E-1,8.236257E-1,2.0374784E-2,8.699828E-2,-1.25326E-1,1.5879981E-1,-2.3413017E-1,-2.8432533E-1,-1.174527E-1,-1.4183147E-1,1.3499743E-1,-3.920589E-3,-2.634968E-1,8.954725E-2,-1.7407934E-1,2.2131625E-1,-4.2716514E-2],"categories":[],"categories_nodes":[],"categories_segments":[],"categories_sizes":[],"default_left":[0,0,0,0,0,0,0,0,0,0,0,0,0,0,0,0,0,0,0,0,0,0,0,0,0,0,0,0,0,0,0,0,0,0,0,0,0,0,0,0,0,0,0,0,0,0,0,0,0,0,0],"id":19,"left_children":[1,3,-1,5,7,9,11,13,15,17,19,21,23,25,27,29,31,-1,-1,-1,-1,33,-1,35,37,39,41,43,45,47,49,-1,-1,-1,-1,-1,-1,-1,-1,-1,-1,-1,-1,-1,-1,-1,-1,-1,-1,-1,-1],"loss_changes":[7.40579E2,3.0364471E1,0E0,7.0339828E0,1.263385E1,1.6841612E0,4.714541E0,6.2658997E0,1.5177649E0,2.618633E0,7.14859E-1,3.0974975E0,6.984871E0,2.0168152E0,6.2389565E0,2.1732047E0,2.7920806E-1,0E0,0E0,0E0,0E0,2.5906794E0,0E0,1.1545787E1,2.3768156E0,4.27649E0,1.1063843E0,4.644475E0,2.0613136E0,2.8208454E0,8.607477E-1,0E0,0E0,0E0,0E0,0E0,0E0,0E0,0E0,0E0,0E0,0E0,0E0,0E0,0E0,0E0,0E0,0E0,0E0,0E0,0E0],"parents":[2147483647,0,0,1,1,3,3,4,4,5,5,6,6,7,7,8,8,9,9,10,10,11,11,12,12,13,13,14,14,15,15,16,16,21,21,23,23,24,24,25,25,26,26,27,27,28,28,29,29,30,30],"right_children":[2,4,-1,6,8,10,12,14,16,18,20,22,24,26,28,30,32,-1,-1,-1,-1,34,-1,36,38,40,42,44,46,48,50,-1,-1,-1,-1,-1,-1,-1,-1,-1,-1,-1,-1,-1,-1,-1,-1,-1,-1,-1,-1],"split_conditions":[2.86679E5,8.646553E-2,2.9973638E-1,-4.5857954E-1,2.84439E5,7.54104E-2,-9.902184E-2,7.4851154E-3,1.216875E0,5.588559E-1,2.75573E5,7.1912944E-1,-1.537539E-1,-1.2236675E0,-1.7679289E-1,2.6088852E-1,5.580353E-1,2.5160798E-1,-1.9229591E-1,-2.7014726E-1,-2.7715048E-2,5.494715E-1,-2.562824E-1,-3.2189012E-1,-4.8148543E-1,3.2507855E-2,1.5569469E0,1.7439278E-2,-1.9889252E0,-3.572503E-1,2.2291282E-2,-2.2045735E-1,-2.3392748E-2,1.011219E-1,-1.0911698E-1,8.236257E-1,2.0374784E-2,8.699828E-2,-1.25326E-1,1.5879981E-1,-2.3413017E-1,-2.8432533E-1,-1.174527E-1,-1.4183147E-1,1.3499743E-1,-3.920589E-3,-2.634968E-1,8.954725E-2,-1.7407934E-1,2.2131625E-1,-4.2716514E-2],"split_indices":[0,14,0,4,0,10,21,4,1,16,0,10,11,20,8,1,17,0,0,0,0,7,0,26,14,16,7,28,19,2,28,0,0,0,0,0,0,0,0,0,0,0,0,0,0,0,0,0,0,0,0],"split_type":[0,0,0,0,0,0,0,0,0,0,0,0,0,0,0,0,0,0,0,0,0,0,0,0,0,0,0,0,0,0,0,0,0,0,0,0,0,0,0,0,0,0,0,0,0,0,0,0,0,0,0],"sum_hessian":[9.6838763E2,5.4773456E2,4.2065305E2,6.543243E1,4.8230212E2,1.5865053E1,4.9567375E1,4.6095273E2,2.1349384E1,2.850997E0,1.3014056E1,2.4449692E1,2.5117682E1,4.0516806E2,5.5784676E1,1.7635368E1,3.7140164E0,1.1413714E0,1.7096257E0,1.1547126E1,1.4669306E0,1.9222755E1,5.2269354E0,5.636784E0,1.9480898E1,1.0621991E1,3.9454608E2,2.085436E1,3.4930317E1,1.2816101E1,4.8192677E0,2.6091297E0,1.1048869E0,8.848462E0,1.0374294E1,1.9050872E0,3.731697E0,1.3385668E1,6.0952296E0,2.6510835E0,7.970907E0,3.8900818E2,5.5379086E0,1.279361E1,8.060751E0,3.0380921E0,3.1892223E1,5.9762883E0,6.8398128E0,3.7413275E0,1.0779401E0],"tree_param":{"num_deleted":"0","num_feature":"30","num_nodes":"51","size_leaf_vector":"1"}},{"base_weights":[2.2679018E-3,-7.0968914E-1,2.99373E-1,-8.3849084E-1,-1.9754879E-1,-4.9923012E-1,-9.115119E-1,-3.8461294E-2,-8.2191336E-1,-8.3422935E-1,-2.4153571E-1,-9.290055E-1,-9.861943E-2,1.6562116E-1,-5.805325E-1,1.7675191E-2,-8.8107544E-1,-8.7967163E-1,-2.1809509E-2,3.6711836E-1,-3.3459157E-1,-9.504119E-1,-4.5684177E-1,-2.349994E-1,9.1433585E-1,1.0330563E0,5.5825073E-2,-7.539212E-1,2.2167994E-2,8.832424E-3,-2.8299862E-1,-2.739828E-1,-5.7122454E-2,4.976138E-2,-1.7084134E-1,-2.8879994E-1,-1.4319076E-1,3.0961287E-1,-2.5080973E-1,-1.2763676E-1,5.891919E-1,-1.4176534E-1,5.8738464E-1,-1.0553163E-1,7.7305906E-2,-2.7438185E-1,-9.308177E-2,-1.756903E-1,2.160343E-1],"categories":[],"categories_nodes":[],"categories_segments":[],"categories_sizes":[],"default_left":[0,0,0,0,0,0,0,0,0,0,0,0,0,0,0,0,0,0,0,0,0,0,0,0,0,0,0,0,0,0,0,0,0,0,0,0,0,0,0,0,0,0,0,0,0,0,0,0,0],"id":20,"left_children":[1,3,-1,5,7,9,11,13,15,17,19,21,23,25,27,-1,29,31,-1,-1,33,35,37,-1,39,41,43,45,47,-1,-1,-1,-1,-1,-1,-1,-1,-1,-1,-1,-1,-1,-1,-1,-1,-1,-1,-1,-1],"loss_changes":[5.320699E2,2.8704025E1,0E0,8.200577E0,8.834239E0,5.3315744E0,3.9797058E0,8.081468E0,9.938612E-1,8.863106E-1,5.5409527E0,2.3974152E0,5.6755085E0,5.010818E0,2.103056E0,0E0,9.9141026E-1,4.2422485E-1,0E0,0E0,4.3464627E0,1.0889435E0,8.809677E0,0E0,5.5400457E0,9.171885E0,4.064301E0,8.235245E-1,2.7259748E0,0E0,0E0,0E0,0E0,0E0,0E0,0E0,0E0,0E0,0E0,0E0,0E0,0E0,0E0,0E0,0E0,0E0,0E0,0E0,0E0],"parents":[2147483647,0,0,1,1,3,3,4,4,5,5,6,6,7,7,8,8,9,9,10,10,11,11,12,12,13,13,14,14,16,16,17,17,20,20,21,21,22,22,24,24,25,25,26,26,27,27,28,28],"right_children":[2,4,-1,6,8,10,12,14,16,18,20,22,24,26,28,-1,30,32,-1,-1,34,36,38,-1,40,42,44,46,48,-1,-1,-1,-1,-1,-1,-1,-1,-1,-1,-1,-1,-1,-1,-1,-1,-1,-1,-1,-1],"split_conditions":[2.86679E5,7.4851154E-3,2.99373E-1,3.4913313E-1,1.2581851E0,-7.780429E-1,1.5569469E0,6.03057E-1,-2.0424464E0,7.048289E-1,-9.1027755E-1,1.3254602E-1,4.509803E-1,-8.7405705E-1,2.44467E5,1.7675191E-2,-3.9335853E-1,4.778153E-1,-2.1809509E-2,3.6711836E-1,7.92285E3,2.84439E5,-1.2839047E0,-2.349994E-1,8.24174E-1,1.4974181E-1,-5.2931637E-1,5.248867E-1,-4.613925E-1,8.832424E-3,-2.8299862E-1,-2.739828E-1,-5.7122454E-2,4.976138E-2,-1.7084134E-1,-2.8879994E-1,-1.4319076E-1,3.0961287E-1,-2.5080973E-1,-1.2763676E-1,5.891919E-1,-1.4176534E-1,5.8738464E-1,-1.0553163E-1,7.7305906E-2,-2.7438185E-1,-9.308177E-2,-1.756903E-1,2.160343E-1],"split_indices":[0,4,0,14,3,4,7,12,19,19,22,21,9,2,0,0,21,23,0,0,29,0,13,0,14,5,11,25,11,0,0,0,0,0,0,0,0,0,0,0,0,0,0,0,0,0,0,0,0],"split_type":[0,0,0,0,0,0,0,0,0,0,0,0,0,0,0,0,0,0,0,0,0,0,0,0,0,0,0,0,0,0,0,0,0,0,0,0,0,0,0,0,0,0,0,0,0,0,0,0,0],"sum_hessian":[7.4860626E2,4.3665393E2,3.1195233E2,3.4839615E2,8.825778E1,6.309403E1,2.8530212E2,7.118222E1,1.7075562E1,2.645961E1,3.663442E1,2.791519E2,6.1502385E0,5.2217506E1,1.8964716E1,1.0749772E0,1.6000584E1,2.4823215E1,1.6363937E0,1.4620721E0,3.5172344E1,2.6607596E2,1.3075916E1,3.804951E0,2.3452873E0,4.9220877E0,4.7295418E1,1.4532895E1,4.4318213E0,1.0577023E0,1.4942883E1,2.3359356E1,1.4638604E0,1.1328428E1,2.3843918E1,2.583494E2,7.726555E0,2.3047318E0,1.0771185E1,1.2914728E0,1.0538146E0,2.0591414E0,2.8629465E0,1.541894E1,3.1876478E1,9.889476E0,4.6434193E0,2.4549022E0,1.976919E0],"tree_param":{"num_deleted":"0","num_feature":"30","num_nodes":"49","size_leaf_vector":"1"}},{"base_weights":[1.7128014E-3,-6.4826596E-1,2.9895452E-1,-2.0547122E-1,-8.1236964E-1,-6.892014E-1,1.5976416E-2,-8.53936E-1,-9.8178044E-2,-7.65494E-1,1.2959407E-1,9.8486006E-2,-2.5227535E-1,-9.0477484E-1,-3.915249E-1,-4.4397902E-1,9.053387E-2,-8.5263216E-1,-5.258494E-2,2.1303804E-1,-1.6044836E-1,1.2339861E-2,1.2922562E0,-9.0342686E-2,-9.212198E-1,2.546478E-1,-6.017861E-1,6.868562E-2,-6.5194285E-1,3.0499515E-1,-1.6068815E-1,-1.748951E-2,-2.7878782E-1,2.4494043E-1,-1.7880479E-1,-1.51417E-2,3.4860215E-1,8.0750674E-1,-2.5536444E-2,-2.2532447E-1,2.9879075E-1,-2.8504354E-1,-1.4929654E-1,-1.4048345E-1,5.7563204E-1,8.895975E-2,-2.3060545E-1,-4.3475725E-2,-2.2684975E-1,-4.130166E-2,1.6675167E-1],"categories":[],"categories_nodes":[],"categories_segments":[],"categories_sizes":[],"default_left":[0,0,0,0,0,0,0,0,0,0,0,0,0,0,0,0,0,0,0,0,0,0,0,0,0,0,0,0,0,0,0,0,0,0,0,0,0,0,0,0,0,0,0,0,0,0,0,0,0,0,0],"id":21,"left_children":[1,3,-1,5,7,9,11,13,15,17,19,21,-1,23,25,27,29,31,33,-1,-1,35,37,39,41,43,45,-1,47,49,-1,-1,-1,-1,-1,-1,-1,-1,-1,-1,-1,-1,-1,-1,-1,-1,-1,-1,-1,-1,-1],"loss_changes":[3.8021887E2,2.5676468E1,0E0,1.0456005E1,7.609314E0,2.0133944E0,4.880928E0,5.3997955E0,1.0440358E0,1.7054825E0,1.7170976E0,6.4421597E0,0E0,2.860077E0,3.686751E0,9.330113E-1,1.6113234E0,1.4706821E0,2.4392385E0,0E0,0E0,4.3612027E0,8.357731E0,4.665815E0,2.1649628E0,9.425308E0,3.214478E0,0E0,1.3022816E-1,1.0391175E0,0E0,0E0,0E0,0E0,0E0,0E0,0E0,0E0,0E0,0E0,0E0,0E0,0E0,0E0,0E0,0E0,0E0,0E0,0E0,0E0,0E0],"parents":[2147483647,0,0,1,1,3,3,4,4,5,5,6,6,7,7,8,8,9,9,10,10,11,11,13,13,14,14,15,15,16,16,17,17,18,18,21,21,22,22,23,23,24,24,25,25,26,26,28,28,29,29],"right_children":[2,4,-1,6,8,10,12,14,16,18,20,22,-1,24,26,28,30,32,34,-1,-1,36,38,40,42,44,46,-1,48,50,-1,-1,-1,-1,-1,-1,-1,-1,-1,-1,-1,-1,-1,-1,-1,-1,-1,-1,-1,-1,-1],"split_conditions":[2.86679E5,3.4913313E-1,2.9895452E-1,-4.8149294E-1,2.84439E5,7.048289E-1,1.2581851E0,2.769705E-1,2.6639724E-1,2.6974766E-2,2.855766E-1,8.010477E-1,-2.5227535E-1,-1.6195633E0,-1.6453312E-1,-3.1334072E-1,-7.9807736E-2,7.54104E-2,8.624613E-2,2.1303804E-1,-1.6044836E-1,6.06903E-1,8.0005E4,-5.759829E-1,9.5991415E-1,-2.9880512E-1,-2.6676318E-1,6.868562E-2,-7.0918816E-1,3.574679E-2,-1.6068815E-1,-1.748951E-2,-2.7878782E-1,2.4494043E-1,-1.7880479E-1,-1.51417E-2,3.4860215E-1,8.0750674E-1,-2.5536444E-2,-2.2532447E-1,2.9879075E-1,-2.8504354E-1,-1.4929654E-1,-1.4048345E-1,5.7563204E-1,8.895975E-2,-2.3060545E-1,-4.3475725E-2,-2.2684975E-1,-4.130166E-2,1.6675167E-1],"split_indices":[0,14,0,4,0,19,3,4,3,11,7,3,0,20,26,8,27,10,5,0,0,21,0,1,7,26,21,0,13,1,0,0,0,0,0,0,0,0,0,0,0,0,0,0,0,0,0,0,0,0,0],"split_type":[0,0,0,0,0,0,0,0,0,0,0,0,0,0,0,0,0,0,0,0,0,0,0,0,0,0,0,0,0,0,0,0,0,0,0,0,0,0,0,0,0,0,0,0,0,0,0,0,0,0,0],"sum_hessian":[5.860286E2,3.5465457E2,2.3137404E2,9.6506584E1,2.5814798E2,2.9642736E1,6.6863846E1,2.4376505E2,1.4382936E1,2.7175695E1,2.4670408E0,6.17984E1,5.0654473E0,2.1875757E2,2.5007484E1,4.6003833E0,9.782553E0,2.4041178E1,3.1345184E0,1.279927E0,1.1871136E0,5.8581326E1,3.2170727E0,4.458252E0,2.1429932E2,6.0877047E0,1.891978E1,1.0622439E0,3.5381396E0,7.6688647E0,2.1136875E0,2.270933E0,2.1770245E1,1.0126538E0,2.1218646E0,5.6453102E1,2.1282234E0,1.1224436E0,2.0946293E0,2.9640138E0,1.4942381E0,1.9943657E2,1.4862737E1,4.744997E0,1.3427078E0,2.842663E0,1.6077118E1,1.0108805E0,2.527259E0,2.9370234E0,4.731841E0],"tree_param":{"num_deleted":"0","num_feature":"30","num_nodes":"51","size_leaf_vector":"1"}},{"base_weights":[2.3243378E-3,-5.797587E-1,2.9844418E-1,-1.5988295E-1,-7.653293E-1,-7.428788E-1,-1.6855694E-2,-8.50092E-1,-3.3433768E-1,-8.4787923E-1,-6.9872295E-3,1.9408602E-1,-3.338792E-1,-8.998358E-1,-3.0042705E-1,5.4712247E-2,-6.277745E-1,-2.714885E-1,-2.3809459E-2,1.8427517E-1,-1.6729885E-1,7.564956E-2,9.9455845E-1,-2.6226637E-1,-6.269641E-2,-9.264915E-1,-3.0646634E-1,3.8151407E-1,-6.0698944E-1,-3.8767785E-1,6.4768773E-1,2.2372021E-1,-7.533022E-1,-2.6845511E-2,1.7332944E-1,4.9571705E-1,-1.1402033E-1,1.5600657E-1,-1.312703E-1,-7.797833E-2,-2.834916E-1,-2.0271102E-1,7.507432E-3,-2.7407402E-1,1.0726615E-1,2.3459099E-1,-2.5718915E-1,2.3881631E-2,6.121215E-1,3.143797E-1,-1.7284524E-1,9.746474E-2,-2.5112888E-1],"categories":[],"categories_nodes":[],"categories_segments":[],"categories_sizes":[],"default_left":[0,0,0,0,0,0,0,0,0,0,0,0,0,0,0,0,0,0,0,0,0,0,0,0,0,0,0,0,0,0,0,0,0,0,0,0,0,0,0,0,0,0,0,0,0,0,0,0,0,0,0,0,0],"id":22,"left_children":[1,3,-1,5,7,9,11,13,15,17,19,21,23,25,27,29,31,-1,-1,-1,-1,33,35,-1,37,39,41,-1,43,45,47,49,51,-1,-1,-1,-1,-1,-1,-1,-1,-1,-1,-1,-1,-1,-1,-1,-1,-1,-1,-1,-1],"loss_changes":[2.6980722E2,2.2814796E1,0E0,7.616512E0,7.1642456E0,1.384985E0,5.0463123E0,4.370537E0,4.0478954E0,6.1888313E-1,1.4564382E0,4.225294E0,4.3601465E0,2.1699524E0,8.284182E0,4.4576454E0,2.3192053E0,0E0,0E0,0E0,0E0,3.4179103E0,5.840494E0,0E0,4.8451786E0,1.5772629E0,1.0161914E0,0E0,4.3840494E0,6.058612E0,5.5547E0,2.816377E0,1.8769445E0,0E0,0E0,0E0,0E0,0E0,0E0,0E0,0E0,0E0,0E0,0E0,0E0,0E0,0E0,0E0,0E0,0E0,0E0,0E0,0E0],"parents":[2147483647,0,0,1,1,3,3,4,4,5,5,6,6,7,7,8,8,9,9,10,10,11,11,12,12,13,13,14,14,15,15,16,16,21,21,22,22,24,24,25,25,26,26,28,28,29,29,30,30,31,31,32,32],"right_children":[2,4,-1,6,8,10,12,14,16,18,20,22,24,26,28,30,32,-1,-1,-1,-1,34,36,-1,38,40,42,-1,44,46,48,50,52,-1,-1,-1,-1,-1,-1,-1,-1,-1,-1,-1,-1,-1,-1,-1,-1,-1,-1,-1,-1],"split_conditions":[2.86679E5,3.4913313E-1,2.9844418E-1,-7.780429E-1,2.1559883E-2,1.7462473E0,4.6132663E-1,9.5991415E-1,-1.7679289E-1,2.215717E4,6.786889E-2,2.1505299E-1,-1.4386933E-1,2.84439E5,-1.2839047E0,1.3110691E-1,-1.7316456E-1,-2.714885E-1,-2.3809459E-2,1.8427517E-1,-1.6729885E-1,3.680562E-1,2.7343863E-1,-2.6226637E-1,-2.3321575E-1,-1.2236675E0,-1.2918125E-1,3.8151407E-1,3.2979634E-1,2.1278946E-1,9.217446E-1,-1.4463605E0,-3.843817E-1,-2.6845511E-2,1.7332944E-1,4.9571705E-1,-1.1402033E-1,1.5600657E-1,-1.312703E-1,-7.797833E-2,-2.834916E-1,-2.0271102E-1,7.507432E-3,-2.7407402E-1,1.0726615E-1,2.3459099E-1,-2.5718915E-1,2.3881631E-2,6.121215E-1,3.143797E-1,-1.7284524E-1,9.746474E-2,-2.5112888E-1],"split_indices":[0,14,0,4,4,16,12,7,8,29,13,14,28,0,13,1,12,0,0,0,0,22,22,0,27,20,28,0,19,16,5,19,7,0,0,0,0,0,0,0,0,0,0,0,0,0,0,0,0,0,0,0,0],"split_type":[0,0,0,0,0,0,0,0,0,0,0,0,0,0,0,0,0,0,0,0,0,0,0,0,0,0,0,0,0,0,0,0,0,0,0,0,0,0,0,0,0,0,0,0,0,0,0,0,0,0,0,0,0],"sum_hessian":[4.6502945E2,2.9338095E2,1.716485E2,9.0492455E1,2.0288849E2,1.7000885E1,7.349157E1,1.6873175E2,3.415674E1,1.47448435E1,2.2560418E0,4.436181E1,2.9129759E1,1.5414482E2,1.4586932E1,1.5035557E1,1.912118E1,1.3560102E1,1.1847405E0,1.0058527E0,1.250189E0,3.9597534E1,4.7642736E0,8.991039E0,2.013872E1,1.4698067E2,7.1641498E0,1.866529E0,1.2720403E1,8.809463E0,6.2260942E0,2.3561857E0,1.6764994E1,3.0416128E1,9.181408E0,3.0855901E0,1.6786836E0,7.732202E0,1.2406517E1,4.3715334E0,1.4260913E2,2.8978999E0,4.26625E0,9.692404E0,3.0279999E0,2.3332028E0,6.4762597E0,5.1731505E0,1.0529435E0,1.0076967E0,1.3484889E0,1.0014974E0,1.5763496E1],"tree_param":{"num_deleted":"0","num_feature":"30","num_nodes":"53","size_leaf_vector":"1"}},{"base_weights":[1.7730088E-3,-5.0965667E-1,2.9779842E-1,-7.6632994E-1,-1.8980183E-1,-8.2112134E-1,-5.2516773E-2,1.5217763E-1,-5.0509316E-1,-2.640741E-1,-8.654057E-1,-4.7655877E-1,1.8930969E-1,2.700974E-2,1.1463127E0,5.4018426E-1,-5.739039E-1,3.3206987E-1,-7.248569E-1,-8.809763E-1,1.0075421E-1,-2.1616524E-1,4.63135E-2,5.439475E-1,-3.8088834E-1,6.6777235E-1,-1.05423465E-1,2.274101E0,-1.16576605E-1,-1.3342835E-1,5.2805805E-1,-6.857536E-1,1.6861482E-2,4.182202E-1,-1.8996581E-1,-3.27724E-2,-2.4541813E-1,-3.7690174E-2,-2.7111E-1,-3.2537617E-2,2.565687E-1,2.0723257E-2,-1.783235E-1,3.529831E-1,-1.1566019E-1,-6.7856155E-2,1.81645E-1,1.1710381E-1,8.853112E-1,1.22281164E-1,-1.3999163E-1,-2.1815594E-1,7.053318E-2,3.1965932E-1,-1.23347946E-1],"categories":[],"categories_nodes":[],"categories_segments":[],"categories_sizes":[],"default_left":[0,0,0,0,0,0,0,0,0,0,0,0,0,0,0,0,0,0,0,0,0,0,0,0,0,0,0,0,0,0,0,0,0,0,0,0,0,0,0,0,0,0,0,0,0,0,0,0,0,0,0,0,0,0,0],"id":23,"left_children":[1,3,-1,5,7,9,11,13,15,17,19,21,23,25,27,29,31,33,35,37,-1,-1,-1,39,41,43,45,47,49,-1,-1,51,53,-1,-1,-1,-1,-1,-1,-1,-1,-1,-1,-1,-1,-1,-1,-1,-1,-1,-1,-1,-1,-1,-1],"loss_changes":[1.9115991E2,2.0280708E1,0E0,5.342621E0,1.2163508E1,2.9245834E0,1.2064006E0,6.755797E0,4.521718E0,3.221747E0,2.502365E0,7.635596E-1,1.7536036E0,4.268006E0,8.917583E0,5.7477946E0,3.6738129E0,6.4359317E0,2.7987266E-1,1.8901138E0,0E0,0E0,0E0,1.133918E0,3.7931824E-1,5.0676756E0,3.730465E0,3.0025215E0,8.906238E-1,0E0,0E0,1.9499035E0,4.8364067E0,0E0,0E0,0E0,0E0,0E0,0E0,0E0,0E0,0E0,0E0,0E0,0E0,0E0,0E0,0E0,0E0,0E0,0E0,0E0,0E0,0E0,0E0],"parents":[2147483647,0,0,1,1,3,3,4,4,5,5,6,6,7,7,8,8,9,9,10,10,11,11,12,12,13,13,14,14,15,15,16,16,17,17,18,18,19,19,23,23,24,24,25,25,26,26,27,27,28,28,31,31,32,32],"right_children":[2,4,-1,6,8,10,12,14,16,18,20,22,24,26,28,30,32,34,36,38,-1,-1,-1,40,42,44,46,48,50,-1,-1,52,54,-1,-1,-1,-1,-1,-1,-1,-1,-1,-1,-1,-1,-1,-1,-1,-1,-1,-1,-1,-1,-1,-1],"split_conditions":[2.86679E5,-3.1744838E-1,2.9779842E-1,2.84439E5,3.6811015E-1,6.397283E-2,-1.4386933E-1,1.5085449E0,1.2996353E-1,-2.6775232E-1,1.5916722E0,5.0936157E-1,3.8706772E-3,-4.2486215E-1,1.08873E5,5.590343E-1,1.0755638E0,-4.749213E-2,9.08273E-2,-3.6562634E-1,1.0075421E-1,-2.1616524E-1,4.63135E-2,-1.3260669E-1,-5.493318E-1,4.5542467E-1,2.84439E5,1.886068E-1,5.5855826E-2,-1.3342835E-1,5.2805805E-1,8.720794E-1,-6.960579E-1,4.182202E-1,-1.8996581E-1,-3.27724E-2,-2.4541813E-1,-3.7690174E-2,-2.7111E-1,-3.2537617E-2,2.565687E-1,2.0723257E-2,-1.783235E-1,3.529831E-1,-1.1566019E-1,-6.7856155E-2,1.81645E-1,1.1710381E-1,8.853112E-1,1.22281164E-1,-1.3999163E-1,-2.1815594E-1,7.053318E-2,3.1965932E-1,-1.23347946E-1],"split_indices":[0,4,0,0,12,14,28,15,10,26,22,15,28,2,0,9,18,15,12,21,0,0,0,25,24,3,0,12,16,0,0,4,13,0,0,0,0,0,0,0,0,0,0,0,0,0,0,0,0,0,0,0,0,0,0],"split_type":[0,0,0,0,0,0,0,0,0,0,0,0,0,0,0,0,0,0,0,0,0,0,0,0,0,0,0,0,0,0,0,0,0,0,0,0,0,0,0,0,0,0,0,0,0,0,0,0,0,0,0,0,0,0,0],"sum_hessian":[3.752143E2,2.4780154E2,1.27412766E2,1.367046E2,1.1109693E2,1.2681974E2,9.884862E0,5.354112E1,5.7555817E1,9.852278E0,1.1696747E2,3.2374094E0,6.647452E0,4.84661E1,5.0750194E0,3.1317852E0,5.442403E1,4.4170265E0,5.4352517E0,1.1573395E2,1.2335206E0,2.2321672E0,1.0052422E0,4.126802E0,2.52065E0,7.6089153E0,4.0857185E1,2.2579272E0,2.8170922E0,2.0844216E0,1.0473638E0,4.5625046E1,8.798986E0,1.8916565E0,2.52537E0,1.0002964E0,4.434955E0,3.5707273E0,1.12163216E2,1.5434664E0,2.5833356E0,1.0288991E0,1.491751E0,5.051528E0,2.5573876E0,3.5507294E1,5.3498893E0,1.0136929E0,1.2442342E0,1.0621943E0,1.754898E0,4.386187E1,1.7631731E0,2.1186857E0,6.6803007E0],"tree_param":{"num_deleted":"0","num_feature":"30","num_nodes":"55","size_leaf_vector":"1"}},{"base_weights":[4.855964E-3,-4.3674973E-1,2.969622E-1,-7.141797E-1,-1.4164372E-1,-3.6096025E-1,-8.47238E-1,1.294077E-1,-4.1361752E-1,-8.269633E-1,-9.4584316E-2,-8.8140345E-1,1.4083183E-1,3.5853907E-1,-1.750273E-1,-6.904702E-1,-9.934357E-2,-2.7151662E-1,-3.8392416E-3,-3.3789915E-1,8.231396E-1,-9.2487127E-1,-2.755752E-1,-1.1298548E-1,7.2092444E-1,9.138544E-2,-6.4316887E-1,4.142085E-2,-7.5494534E-1,-2.5520965E-1,1.4181529E-1,-1.6051911E-1,1.2796181E-1,4.5589218E-1,-1.4326844E-1,